svm_type c_svc
kernel_type linear
nr_class 14
total_sv 317
rho -1.7382876163379899 -1.7981891999784758 -4.3497003670722592 -5.2661987688306535 -1.5379131550369221 -1.5174092687236902 -1.3607530323592363 -1.7574655762750655 0.72667791591084929 -0.96090742103219062 -0.17446636618051736 0.89904915803834451 1.4459650187516673 -0.4275745304839359 -0.92328379769442426 0.46522523505391916 -0.71906919617384413 -0.73767079314940798 -0.77537683598705076 -0.19082241530021091 0.17006147609551139 -0.5747479726318877 -0.031757431091639664 0.12534487868927596 0.23362587827765499 17.839848720788368 8.1051531924169797 -11.677695534786496 1.7349319181177298 2.6439348032826251 2.140584810596168 -0.86781137701978772 -0.28242946373969285 0.52601988385322507 0.36257113632137822 0.56057706527092188 -7.6483613291350787 0.5542721266871371 -0.77860165410520565 2.7978836210753615 1.5286596830432346 1.5280335287262228 0.15760527197654947 0.35557566451946837 0.34137295603521189 0.62021599740694344 -2.6313976914546289 0.36735484522723277 0.72417795751600833 0.41887441739333875 -0.9340740905388728 0.083776086078853493 0.18020124542096186 0.1065804645993934 0.5251113081466604 -5.0483640387690372 2.5460663560940113 2.6572278292669216 4.3303056855966329 1.2369869849562831 11.413942459354933 13.390497190338477 12.227951210795117 6.3375942549526005 10.624724145029289 4.7758004379393357 -6.5938751707858954 5.2760814967144274 5.9208339153023468 2.6688137594535695 -8.0189308226907112 -3.1913094443915768 -4.7034915941277022 6.9678127433830115 -4.2134729581924892 2.8171178583905538 -11.625055492356905 -8.6203773787040614 -9.8344851893562844 -11.315381309928894 -19.059695543673083 -6.0235269183128572 -6.7471182676488723 -8.0058139518569504 -5.8407481871952136 4.2991456728785682 3.939134788612189 5.5607999158556769 1.1658729257742846 3.9071316058440253 -10.338893556981985
label 0 1 2 3 4 5 6 7 8 9 10 11 12 13
probA -0.95484386105202335 -2.6759821454024264 -2.3542662867968871 -1.9322524392405203 -3.5908956731063371 -4.4599775792161305 -2.1481299236080793 -2.4557064012360814 -2.277359115103752 -4.289925690319417 -2.430203354862126 -2.5307462434839758 -2.3202994867014533 -3.2089923239955382 -3.1861383809681438 -2.659089304613254 -4.5801588352097653 -5.2121850236836123 -3.957717055492858 -3.3557751109787288 -3.4158964825506986 -5.0808437022947466 -3.902095540772538 -3.9007908344179105 -3.6969139971613885 -2.1434948367267621 -2.2847590976009466 -1.1797955325859451 -2.144294040730844 -1.9912417095959061 -2.6241932484642065 -2.5906672511884059 -4.2655035043186365 -3.9221794379234165 -3.7446081879280131 -4.2993602325882332 -4.9584219229964992 -1.9211085565943642 -2.9759144279308285 -1.9352573497108601 -2.805170326047945 -2.5807683385998406 -4.4840998715264879 -3.9558100197412878 -4.0152676561299376 -4.2642298205737603 -2.5116299318804773 -3.3243073179607863 -2.299672138462304 -3.0505064562204578 -3.0063594100646305 -4.630185957535665 -4.0435927456381826 -4.1517038059316826 -4.367672050580957 -0.80608368033047983 -3.4229916388463977 -2.6081859522511053 -1.8992240278502455 -2.793255370847211 -1.9384124145861694 -1.7649983807102756 -1.5494766898437888 -3.7561166202614231 -2.203772034965799 -3.578966881334396 -0.76013183609740176 -3.4228887061061704 -3.1727685760398376 -2.8808374998115966 -4.6429417665362358 -2.208792233564584 -3.56669192011889 -1.3542085295868276 -1.6536801502658944 -2.621897400378324 -3.6695149087412844 -2.9304931301980162 -2.0338460726078478 -0.92015464861515317 -1.1197133887513597 -2.8272782013035984 -2.2872151725782559 -0.8854546778125203 -1.2156354427672869 -3.6931169937703205 -3.3527987858647634 -2.8210177318202541 -2.4085779228518582 -2.9398720876946083 -3.6638193831357673
probB 0.5981141685596576 -0.14426762952757821 -0.19268524442218865 -0.24226501523316546 0.46427403442296211 1.0834122230767522 0.47744542009372165 0.17237685785131265 -0.034283846545861321 0.97191034479661687 0.6163505207290767 0.49054047648066607 0.12498929855533114 -1.0782832298697345 -0.98299868759747489 -1.2680364295775008 -0.47429830097189252 0.11618906184490603 -0.22391375203698888 -0.53066618499526519 -0.096261883963401865 0.27476191639049435 0.13938966372657963 0.30288850078764173 0.17531192575054708 0.31477208544894392 -0.1603347926972167 -0.11958763270459598 -0.78970884674218733 -0.63004109377787165 -0.51552295563521455 0.23580052047479649 0.33970717741950973 0.048340140583590534 0.2085192818731548 0.29709928515786871 -0.12907364820044176 -0.18854977525604719 -0.35976006253622561 -0.76214736147861062 -0.24103991040579448 -0.19936196493085548 0.16091388396006176 -0.015323019241881078 0.10667453478225941 0.31197331974767889 0.10771083892894773 -0.52734832321874814 -0.68584597964264205 -0.2517473672765812 0.19753886335681839 0.074639597835009369 -0.11149317770772184 0.023822053207631328 0.20674800161180618 -0.32138095447741882 0.069783080673570336 -0.035074693510439861 -0.20338613003916453 0.0035738157944610618 -0.38354955854387301 -0.70584746368660056 -0.44971194949049681 -0.73525939358489056 -1.3869483152688953 -0.80967667697407963 0.59645373621378628 -1.2369172493302045 -1.1528891191895376 -1.1153401749129392 -0.20960125634306168 -0.21628312362166749 0.43230098881457774 -0.23117583327059885 -0.094410167436599884 -0.37419710737319595 -0.11180518667531161 0.85553458078063693 0.34828283512633385 -0.093008735056058986 -0.37675405268896295 0.58185179669119291 0.14858612881642363 -0.0231221287053003 0.3236112733084629 -1.0884833851260565 -1.2177755083553778 -1.3812261807074488 0.031618491607006208 -0.16305001529590107 -0.19165342558242471
nr_sv 15 18 14 18 19 13 15 37 35 36 8 23 31 35
SV
0.051279076519190864 0 0 0 0 0 0 0 0 0 0 0 0 0:1.01916 1:1 2:3.16299 3:9.84734 4:136.645 5:-256.41 6:-969.231 7:-94.0171 8:0 9:743.59 10:11.9658 11:6 12:0.025641 13:1.40909 14:0.000116144 
0.021518783587677 0 0 0 0 0 0 0 0 0 0 0 0 0:0.732804 1:1 2:2.72934 3:10.0653 4:127.229 5:-178.571 6:-989.418 7:-72.7513 8:0 9:554.233 10:10.582 11:6 12:0.0487805 13:1.3125 14:0.000105056 
1 0 0 0 0 0 0 0 0 0 0 0 0 0:1.29188 1:1 2:1.65969 3:3.40875 4:165.339 5:-598.93 6:-774.064 7:0 8:0 9:401.07 10:0 11:1 12:-0.365385 13:0.741935 14:5.07975e-05 
1 0 0 0 0 0 0 0 0 0 0 0 0 0:1.05714 1:1 2:1.4668 3:2.95706 4:165.722 5:-636.637 6:-945.946 7:0 8:0 9:363.363 10:0 11:1 12:-0.809524 13:0.727273 14:5.24334e-05 
0 0 0 0 0 0 0 3.746958330418624e-05 5.3925880892121267e-05 0 0 0 0 0:1.28393 1:1 2:4.24896 3:12.5807 4:124.308 5:-11.1266 6:-714.882 7:-189.152 8:0 9:988.873 10:63.9777 11:6 12:0.297872 13:0.913043 14:0.0001515 
1 0 0 0 0 0 0 0 0 0 0 0 0 0:1.05901 1:1 2:2.00855 3:4.1356 4:167.401 5:-359.94 6:-915.663 7:0 8:0 9:640.06 10:28.6145 11:1 12:-1 13:0.483871 14:6.48527e-05 
1 0 0 0 0 0 0 0 0 0 0 0 0 0:1.11048 1:1 2:1.90081 3:3.85124 4:165.179 5:-385.935 6:-900.515 7:0 8:0 9:614.065 10:0 11:1 12:-0.72 13:0.606061 14:7.5145e-05 
0 0 0 0 0 0 0 0 0 0 0 6.4462278015142758e-06 1.0060009794569402e-05 0:1.31798 1:1 2:6.39284 3:14.1246 4:123.09 5:-151.414 6:-489.185 7:0 8:0 9:848.586 10:269.551 11:6 12:-3 13:0.0357143 14:0.000204338 
0 0 0 0 5.7265324952779072e-06 3.9113831394633349e-06 9.0869971317824905e-05 2.1377958922175774e-05 2.6800720365077032e-05 2.8278960744658554e-06 0 0 0 0:1.18727 1:1 2:4.9773 3:12.8813 4:123.766 5:-143.951 6:-637.06 7:-323.124 8:0 9:856.049 10:205.207 11:6 12:-16.5 13:0.90625 14:0.000144786 
0 0 0 0 0 0 0 0 0 0 2.1448550900969915e-05 1.1993798244052272e-05 2.8781147392645199e-05 0:1.22453 1:1 2:5.28575 3:12.9517 4:130.9 5:-106.961 6:-599.321 7:-246.18 8:0 9:893.039 10:217.317 11:6 12:-5.8 13:0.777778 14:0.000172956 
0.03692671052876588 2.1425005929142443e-05 1.4439335776583665e-05 2.6826502349284204e-05 0 0 0 9.6948562604718002e-06 0 0 0 0 0 0:1.18403 1:1 2:3.6463 3:9.56753 4:130.704 5:-426.686 6:-765.396 7:-278.592 8:0 9:573.314 10:79.1789 11:6 12:1.66667 13:1.11111 14:0.00012219 
0 0 2.3625880573226514e-05 4.4842683550420329e-05 0 0 0 0 0 0 0 0 0 0:0.889968 1:1 2:2.90611 3:9.17157 4:125.934 5:-286.408 6:-972.492 7:-142.395 8:0 9:603.56 10:27.5081 11:6 12:0.192308 13:1.20833 14:0.000126508 
0 1.1687579526477498e-05 1.3580041344935995e-05 2.377068986003475e-05 0 0 0 0 0 0 0 0 0 0:0.936567 1:1 2:2.83773 3:8.88497 4:125.17 5:-453.358 6:-962.687 7:-126.866 8:0 9:483.209 10:37.3134 11:6 12:0.225 13:1 14:0.000159809 
0.095047133957862712 0 0 0 0 0 0 0 0 0 0 0 0 0:1.60494 1:1 2:2.69193 3:8.23489 4:124.082 5:-643.59 6:-623.077 7:-8.97436 8:-70.5128 9:356.41 10:0 11:5 12:-0 13:4 14:0.000118708 
0 0 0 0 0 0 0 0 0 0 3.4756578356884104e-06 8.4104592252012864e-06 3.0664156099352728e-06 0:1.04319 1:1 2:5.3841 3:13.0076 4:127.062 5:0 6:-633.758 7:-168.79 8:0 9:1000 10:324.841 11:6 12:1.72222 13:0.48 14:0.000153416 
-0 2.464860726679951e-06 0 1.7270595701274118e-06 0 0 0 0 0 0 0 0 0 0:0.414978 1:1 2:1.17582 3:3.45911 4:169.692 5:-195.595 6:-1000 7:0 8:0 9:219.383 10:0 11:1 12:7 13:1.35294 14:6.54713e-05 
-0 1.9869133240864169e-05 2.6986938222626206e-05 6.2365904881783724e-05 0 0 0 0 0 0 0 0 0 0:0.797561 1:1 2:1.73873 3:3.81174 4:161.604 5:-373.171 6:-1000 7:-70.7317 8:-43.9024 9:424.39 10:0 11:1 12:-0.285714 13:0.62069 14:0.000141717 
-0 0 0 0 0 3.1836644306358488e-07 1.4112767117712126e-09 3.9985609669187929e-06 0 1.908201438220851e-07 0 0 0 0:1.42545 1:1 2:2.30574 3:4.57452 4:163.678 5:-418.41 6:-701.534 7:-26.4993 8:-30.6834 9:581.59 10:0 11:1 12:-0.0606061 13:1.15789 14:7.48646e-05 
-1 0 0 0 0 0 0 0 0 0 0 0 0 0:1.0905 1:1 2:1.69831 3:3.41632 4:161.859 5:-495.238 6:-917.007 7:0 8:0 9:504.762 10:0 11:1 12:-1.15385 13:0.677419 14:6.05583e-05 
-0 0 0 0 2.6001132297544683e-06 1.357603304099609e-06 0 0 0 0 0 0 0 0:0.962617 1:1 2:2.13268 3:4.33894 4:154.552 5:-307.076 6:-1000 7:-89.4526 8:-66.7557 9:655.541 10:0 11:1 12:-0.735294 13:0.766667 14:5.37008e-05 
-0 0 2.7506613674658812e-06 0 0 0 0 0 0 0 0 0 0 0:0.984177 1:1 2:1.93388 3:3.92094 4:165.027 5:-438.291 6:-1000 7:-85.443 8:-47.4684 9:545.886 10:0 11:1 12:-0.0666667 13:0.62069 14:7.1228e-05 
-1 0 0 0 0 0 0 0 0 0 0 0 0 0:0.997868 1:1 2:2.04463 3:4.40766 4:164.25 5:-307.036 6:-978.678 7:0 8:0 9:690.832 10:21.322 11:2 12:-0.121212 13:0.769231 14:0.000104787 
-0.005879141307748117 0 0 0 0 0 0 0 0 0 0 0 0 0:0.986767 1:1 2:1.71179 3:3.67584 4:162.192 5:-487.713 6:-1000 7:0 8:0 9:499.055 10:0 11:1 12:-0.241379 13:1.2 14:7.96703e-05 
-0 0 0 0 0 0 0 3.1438126896388814e-06 1.148156026601922e-06 2.6236807549563698e-07 2.5554720340589627e-06 2.553111646929973e-06 3.0688121190260151e-06 0:0.857143 1:1 2:2.13172 3:5.22641 4:165.738 5:0 6:-992.857 7:-7.14286 8:0 9:857.143 10:7.14286 11:1 12:0.0285714 13:1.03571 14:0.000152116 
-0.011169534251278234 0 0 0 0 0 0 0 0 0 0 0 0 0:0.840996 1:1 2:1.9087 3:4.19362 4:163.411 5:-275.862 6:-944.444 7:0 8:0 9:565.134 10:55.5556 11:2 12:0.106383 13:1.08696 14:9.16398e-05 
-0 0 0 0 0 0 1.1193358314035694e-06 2.7108249535290404e-06 5.9613876690187019e-06 0 0 0 0 0:0.916667 1:1 2:2.22188 3:5.38826 4:162.989 5:-22.5225 6:-1000 7:0 8:0 9:894.144 10:0 11:1 12:-0 13:1.07143 14:0.00011621 
-0.84904004581126225 0 0 0 0 0 0 0 0 0 0 0 0 0:1.09226 1:1 2:1.37901 3:2.80128 4:166.044 5:-714.452 6:-915.537 7:0 8:0 9:285.548 10:0 11:1 12:-0.771429 13:0.954545 14:5.41081e-06 
-0.023851111540972459 0 0 0 0 0 0 0 0 0 0 0 0 0:0.925687 1:1 2:1.7372 3:3.73003 4:162.788 5:-379.645 6:-1000 7:0 8:0 9:546.042 10:0 11:1 12:-6.6 13:0.833333 14:7.04847e-05 
-0.47601023513799096 0 0 0 0 0 0 0 0 0 0 0 0 0:1.01961 1:1 2:1.78613 3:3.71004 4:162.513 5:-506.787 6:-964.932 7:-35.0679 8:-6.78733 9:493.213 10:15.8371 11:1 12:-0.5 13:0.193548 14:3.52284e-05 
-0 0 0 0 0 0 4.4095727458172079e-06 7.7398859750083126e-07 0 3.6454883020323747e-07 0 0 0 0:0.819127 1:1 2:2.28406 3:5.31315 4:149.355 5:-74.8441 6:-952.183 7:-39.501 8:-39.501 9:744.283 10:47.817 11:2 12:0.0408163 13:1 14:0.00011081 
-0 0 0 0 0 3.5421928631941724e-07 2.3980063710167273e-06 0 0 0 0 0 0 0:1.42086 1:1 2:2.25618 3:4.51288 4:166.42 5:-427.261 6:-703.801 7:-30.1442 8:-20.9699 9:572.739 10:0 11:1 12:-0.206897 13:0.695652 14:6.58969e-05 
-0.71183498133682599 0 0 0 0 0 0 0 2.326904982910273e-06 5.5447346721439869e-07 1.6508566508966227e-06 2.0128771791077563e-06 2.5071816408983943e-06 0:1.6252 1:1 2:2.16691 3:4.53316 4:166.998 5:-464.147 6:-615.31 7:0 8:0 9:535.853 10:0 11:1 12:-0.386364 13:0.346154 14:3.81493e-05 
-0.12698665520744454 0 -0 -0 0 0 0 0 0 0 0 0 0 0:1.46058 1:1 2:1.83734 3:3.89341 4:158.109 5:-628.788 6:-661.932 7:-6.62879 8:-27.4621 9:371.212 10:22.7273 11:1 12:-1.41176 13:4.14286 14:4.06031e-05 
-0 -1.3837044663245326e-05 0 0 0 0 0 0 0 0 0 0 0 0:0.597576 1:2 2:2.21833 3:7.5172 4:146.029 5:-378.182 6:-1000 7:-324.848 8:-46.0606 9:219.394 10:0 11:1 12:-1.13043 13:-1.36364 14:9.09706e-05 
-0 -0 0.0030739622800215606 0.0020633955384911718 0 0 0 0 0 0 0 0 0 0:0.973574 1:2 2:2.9716 3:7.26056 4:127.785 5:-673.157 6:-1000 7:-582.754 8:-109.875 9:300.417 10:0 11:1 12:-1.28 13:-1 14:7.55017e-05 
-2.0570699205866852e-05 -8.496949304298796e-06 0 0 0 0 3.3045249086897415e-06 0 0 0 0 0 0 0:0.736377 1:2 2:2.55107 3:8.07026 4:140.049 5:-250.368 6:-1000 7:-388.807 8:-54.4919 9:486.009 10:0 11:1 12:-1.82353 13:-0.95 14:0.000114875 
-0 -0 0 0.0004417078795275239 0 0 0 0 0 0 0 0 0 0:1.00478 1:2 2:2.77081 3:7.64246 4:129.811 5:-499.208 6:-995.246 7:-484.945 8:0 9:500.792 10:0 11:1 12:-1.55556 13:-1.4375 14:0.000100942 
-0 -0 0.035564830699503752 0.004658162032957618 0 0 0 0 0 0 0 0 0 0:0.856296 1:2 2:3.28794 3:12.4733 4:123.535 5:-438.519 6:-1000 7:-625.185 8:-23.7037 9:417.778 10:0 11:1 12:0 13:-0.947368 14:0.000110214 
-0 -0 0 0 0.010495269246254468 0 0 0 0 0 0 0 0 0:1.27334 1:2 2:4.44499 3:10.3059 4:141.922 5:-613.333 6:-785.333 7:-928 8:-228 9:386.667 10:0 11:1 12:-0.25 13:-0.392857 14:7.92303e-05 
-0 -0 0 0 0.006214122853841611 9.2487867527278483e-06 0 0 0 0 0 0 0 0:1.10395 1:2 2:3.50301 3:10.6587 4:141.796 5:-361.582 6:-905.838 7:-1000 8:-290.019 9:638.418 10:0 11:1 12:-0.05 13:-0.181818 14:0.000137034 
-0 -0 0 0 0.0076559558578576355 0 0 0 0 0 0 0 0 0:1.06947 1:2 2:4.0868 3:11.2549 4:144.904 5:-450.151 6:-935.045 7:-1000 8:-362.538 9:549.849 10:0 11:1 12:-0.317073 13:-0.6 14:9.51735e-05 
-0 -0 0 0 0 0 1.8184172339730307e-05 6.3932976333564285e-06 2.488364146549898e-05 8.9183552665248027e-07 2.153704402978514e-06 2.8648874936918397e-06 0 0:0.889734 1:2 2:2.89641 3:11.865 4:141.672 5:-159.696 6:-1000 7:-889.734 8:-148.289 9:730.038 10:0 11:1 12:-0.157895 13:-0.233333 14:0.000146242 
-0 -0 0 0 0 1.9940665661187611e-05 0 0 0 0 0 0 0 0:1.1317 1:2 2:4.1356 3:12.2174 4:136.821 5:-397.835 6:-879.567 7:-1000 8:-361.299 9:602.165 10:4.05954 11:1 12:0.0731707 13:-0.428571 14:8.70345e-05 
-1.2541886249753088e-05 -0 0 0 0 0 0 0 0 0 0 0 0 0:1.32105 1:2 2:3.33255 3:7.21322 4:141.391 5:-674.635 6:-756.972 7:-423.639 8:-102.258 9:325.365 10:0 11:1 12:-0.454545 13:0.15625 14:8.15452e-05 
-0 -0 0 0 0.0021258065847134374 0 0 0 0 0 0 0 0 0:0.68648 1:2 2:3.94309 3:12.1812 4:145.075 5:-230.769 6:-1000 7:-686.48 8:-425.408 9:455.711 10:0 11:2 12:-0.0545455 13:-0.222222 14:7.51936e-05 
-0 -0 0 0 0 8.0784242168316417e-06 0 0 0 0 0 0 0 0:1.4905 1:2 2:4.54765 3:11.0284 4:132.249 5:-482.039 6:-670.915 7:-659.328 8:-99.6524 9:517.961 10:0 11:1 12:-0.367347 13:-0.5 14:8.00517e-05 
-0 -0 0 0 0 0 2.7389923311601432e-05 1.5725133649023275e-05 7.4718158010526764e-06 2.1996732199642194e-06 2.7682587602448096e-06 2.4050563554144793e-06 3.891310829588043e-06 0:1.33213 1:2 2:3.71024 3:11.5954 4:136.084 5:-414.634 6:-750.678 7:-719.512 8:-16.2602 9:585.366 10:0 11:1 12:-0.148936 13:-0.928571 14:0.000100281 
-0 -0 -0.0065724842042609337 0 0 0 0 0 0 0 0 0 0 0:0.689016 1:3 2:3.80987 3:19.182 4:120.793 5:-349.501 6:-1000 7:-580.599 8:-74.1797 9:339.515 10:0 11:1 12:-0.888889 13:-0.44 14:0.000144721 
-0 -0 -0.017136676363073096 0 0 0 0 0 0 0 0 0 0 0:0.911348 1:3 2:3.54944 3:13.7786 4:119.82 5:-583.333 6:-1000 7:-567.376 8:-1.77305 9:328.014 10:0 11:1 12:-2.88889 13:-0.72 14:0.000134531 
-0 -0 -0 0.15615735791641691 0 0 0 0 0 0 0 0 0 0:1.02819 1:3 2:4.01654 3:15.9734 4:102.342 5:-593.548 6:-972.581 7:-462.903 8:0 9:406.452 10:0 11:1 12:-0.785714 13:3.125 14:0.000141764 
-0 -7.7617161651999335e-06 -0 0 0 0 0 0 0 0 0 0 0 0:0.73107 1:3 2:3.54515 3:13.0845 4:111.291 5:-349.869 6:-1000 7:-325.065 8:-127.937 9:381.201 10:0 11:1 12:-0.833333 13:-1.625 14:0.000109567 
-5.1645257694746182e-05 -8.9913914652424266e-06 -0 0 0 0 0 0 0 0 0 0 0 0:0.858653 1:3 2:3.56879 3:14.6809 4:104.243 5:-351.387 6:-1000 7:-334.214 8:-5.28402 9:507.266 10:0 11:1 12:-0.625 13:-0.153846 14:0.00010568 
-0 -1.2984491959649733e-05 -0 0 0 0 0 0 0 0 0 0 0 0:0.77037 1:3 2:3.05661 3:12.2582 4:117.852 5:-420.988 6:-1000 7:-317.284 8:0 9:349.383 10:0 11:1 12:-2.88889 13:-1.3125 14:8.90313e-05 
-0 -0 -0.0023313848768801836 0 0 0 0 0 0 0 0 0 0 0:0.712991 1:3 2:2.9226 3:10.4751 4:118.276 5:-290.03 6:-1000 7:-371.601 8:-68.4794 9:422.961 10:0 11:1 12:-1.22222 13:-1.42105 14:6.68521e-05 
-0 -0 -0 0.68083362239267819 0 0 0 0 0 0 0 0 0 0:0.812981 1:3 2:4.09986 3:20.0396 4:120.449 5:-574.257 6:-1000 7:-452.145 8:-23.1023 9:238.724 10:0 11:1 12:-1.11429 13:-0.344828 14:7.29437e-05 
-0 -0 -0 0 0 5.0243393767875679e-06 3.7983051149216005e-06 0 2.4288973078325621e-05 1.8224780938175229e-06 0 5.2193152730602141e-07 0 0:0.961345 1:3 2:4.41507 3:26.7812 4:104.159 5:-267.227 6:-1000 7:-961.345 8:-84.0336 9:694.118 10:0 11:1 12:-1.31579 13:-0.148148 14:0.000152788 
-0 -0 -0 0.61706135329426226 0 0 0 0 0 0 0 0 0 0:0.721212 1:3 2:3.97092 3:19.8759 4:102.3 5:-240 6:-1000 7:-343.03 8:-52.1212 9:481.212 10:0 11:1 12:-0.735294 13:-1.38095 14:0.000112045 
-0 -0 -0 0.0047937549036767176 0 0 0 0 0 0 0 0 0 0:0.630641 1:3 2:4.08128 3:23.7816 4:95.127 5:-351.544 6:-972.684 7:-418.052 8:-26.1283 9:279.097 10:27.3159 11:1 12:-0.4 13:-1.75 14:0.000136434 
-0 -0 -0 0.69891515721153863 0 0 0 0 0 0 0 0 0 0:0.824607 1:3 2:4.33662 3:21.9387 4:109.156 5:-420.157 6:-1000 7:-497.382 8:-22.2513 9:404.45 10:0 11:1 12:-0.586207 13:-1.27778 14:0.000118424 
-0 -0 -0 0 6.4979640889426587e-05 0 0 0 0 0 0 0 0 0:0.99084 1:3 2:5.48464 3:19.9599 4:118.42 5:-592.366 6:-1000 7:-897.71 8:-248.855 9:398.473 10:0 11:1 12:-0.08 13:-0.4 14:0.000115268 
-0 -0 -0.012598247535311248 0 0 0 0 0 0 0 0 0 0 0:0.92437 1:3 2:4.48298 3:23.3284 4:119.299 5:-373.109 6:-1000 7:-763.025 8:-40.3361 9:551.261 10:0 11:1 12:-0.108696 13:-0.241379 14:0.000149733 
-0 -0 -0 0 3.0727629852510675e-05 1.2583408894129732e-05 0 0 0 0 0 0 0 0:1.19453 1:3 2:6.00042 3:22.1439 4:105.182 5:-432.57 6:-835.878 7:-762.087 8:-198.473 9:567.43 10:1.27226 11:1 12:-0 13:-0.482759 14:0.000104411 
-0 -0 -0 0 0 0 1.861909352725533e-05 1.1349558783490344e-05 2.8963076475757982e-06 0 3.3328761411455932e-06 2.8013801290725037e-06 0 0:0.962162 1:3 2:5.01648 3:23.6528 4:111.393 5:-261.261 6:-980.18 7:-700.901 8:-136.937 9:700.901 10:19.8198 11:2 12:0.0392157 13:-0.153846 14:0.000158586 
-0 -0 -0 0 0 0 2.605787789481181e-05 6.178746134101525e-06 0 8.4413019444001608e-07 1.3365039914391802e-06 1.3364256330410395e-06 3.9824673649660718e-06 0:1.25955 1:3 2:5.34759 3:19.1472 4:102.557 5:-418.458 6:-793.932 7:-520.86 8:-72.0607 9:581.542 10:0 11:1 12:-1.11538 13:-0.407407 14:0.000104681 
-0 -0 -0 0 3.2786934212821347e-05 0 0 0 0 0 0 0 0 0:1.07229 1:3 2:5.40854 3:26.7864 4:104.384 5:-490.169 6:-932.584 7:-918.539 8:-113.764 9:509.831 10:0 11:1 12:-0.277778 13:-0.121212 14:0.000109991 
-0 -0 -0 -0.0050738278945087027 0 0 0 0 0 0 0 0 0 0:0.853222 1:4 2:3.49041 3:15.2718 4:92.5197 5:-553.699 6:-1000 7:-289.976 8:0 9:299.523 10:0 11:1 12:-0.702703 13:-27 14:9.34626e-05 
-0 -0 -0 -0.71138089141979222 0 0 0 0 0 0 0 0 0 0:0.971014 1:4 2:4.21813 3:18.0346 4:112.751 5:-582.345 6:-1000 7:-429.513 8:-19.7628 9:388.669 10:0 11:1 12:-1.19231 13:-1 14:0.000105473 
-0 -6.4092964451911138e-05 -0 -0 0 0 0 0 0 0 0 0 0 0:0.726374 1:4 2:3.49196 3:15.5451 4:102.649 5:-347.253 6:-1000 7:-228.571 8:-45.0549 9:379.121 10:0 11:1 12:-0.535714 13:-0.925926 14:9.14366e-05 
-8.2798747434517601e-05 -0 -0 -0 0 0 0 0 0 0 0 0 0 0:0.861224 1:4 2:4.2118 3:20.229 4:116.576 5:-336.054 6:-1000 7:-274.83 8:-10.8844 9:525.17 10:0 11:1 12:-0.482759 13:-0.533333 14:0.000128962 
-0 -0 -0 -1 0 0 0 0 0 0 0 0 0 0:0.642938 1:4 2:3.6171 3:19.9111 4:118.015 5:-316.384 6:-1000 7:-346.893 8:-11.2994 9:326.554 10:0 11:1 12:-0.757576 13:-0.444444 14:0.000111207 
-0 -0 -0 -0.029085126244556996 0 0 0 0 0 0 0 0 0 0:0.801489 1:4 2:4.42557 3:19.3743 4:87.5363 5:-419.355 6:-997.519 7:-480.149 8:-109.181 9:382.134 10:2.48139 11:1 12:-0.0645161 13:-0.290323 14:0.000107552 
-0 -0 -0 -0.12387900360675061 0 0 0 0 0 0 0 0 0 0:0.830671 1:4 2:4.63013 3:25.8128 4:79.4069 5:-408.946 6:-1000 7:-666.134 8:-33.5463 9:421.725 10:0 11:1 12:-0.264706 13:-0.393939 14:0.000159744 
-0 -0 -0 -0 1.3056209386438667e-05 5.3228081096080729e-06 0 0 5.9238613111941799e-06 6.8130175901259694e-07 0 0 0 0:1.00166 1:4 2:5.84265 3:44.7924 4:68.6108 5:-401.327 6:-998.342 7:-978.441 8:-9.95025 9:598.673 10:0 11:1 12:-0.5 13:-0.193548 14:0.000195589 
-0 -0 -0 -0.046886609110794959 0 0 0 0 0 0 0 0 0 0:0.836634 1:4 2:4.57296 3:24.9752 4:104.716 5:-522.277 6:-998.762 7:-563.119 8:0 9:314.356 10:1.23762 11:1 12:-0.037037 13:-0.892857 14:0.000119002 
-0 -0 -0 -0.17389222643465926 0 0 0 0 0 0 0 0 0 0:0.973164 1:4 2:5.71512 3:26.4145 4:82.144 5:-425.141 6:-1000 7:-717.514 8:-162.429 9:548.023 10:0 11:1 12:-0.264706 13:-0.384615 14:0.000116848 
-0 -0 -0 -0 1.1271968827349007e-05 0 0 0 0 0 0 0 0 0:0.966581 1:4 2:6.0814 3:24.6508 4:84.9263 5:-583.548 6:-1000 7:-749.357 8:-214.653 9:383.033 10:0 11:3 12:-0.194444 13:-0.222222 14:9.57173e-05 
-0 -0 -0 -0 2.1073943902617247e-05 5.5856903234775829e-06 0 0 0 0 0 0 0 0:0.828496 1:4 2:6.88275 3:34.9359 4:68.6436 5:-378.628 6:-961.741 7:-753.298 8:-275.726 9:449.868 10:38.2586 11:4 12:0.122807 13:-0.125 14:0.000138648 
-0 -0 -0.0005067788020303661 -0 0 0 0 0 0 0 0 0 0 0:0.900888 1:4 2:5.72206 3:30.0319 4:112.679 5:-261.834 6:-1000 7:-636.095 8:-171.598 9:639.053 10:0 11:1 12:-0.15 13:-0.107143 14:0.000138456 
-0 -0 -0 -0 0 0 0 2.8748583507046146e-07 0 0 4.3082932011095334e-07 0 0 0:0.884416 1:4 2:5.43865 3:36.6667 4:79.8304 5:-254.545 6:-1000 7:-564.935 8:0 9:629.87 10:0 11:1 12:-0.444444 13:-0.666667 14:0.000131586 
-0 -0 -0.0020008241233271007 -0.021068616022191813 0 0 0 0 0 0 0 0 0 0:0.705275 1:4 2:4.4361 3:21.5479 4:115.815 5:-400.229 6:-1000 7:-481.651 8:-125 9:305.046 10:0 11:1 12:-0.241379 13:-0.333333 14:0.000104423 
-0 -0 -0.0046556625256188571 -0 0 0 0 0 0 0 0 0 0 0:0.98269 1:4 2:4.58168 3:21.4601 4:112.191 5:-584.554 6:-1000 7:-652.463 8:0 9:398.136 10:0 11:1 12:-0.52381 13:-1 14:0.000102844 
-1.2641128325221698e-05 -0 -0 -0 0 0 1.3181457560671198e-05 2.7926048314536183e-06 0 1.363424638772224e-07 8.7381707344852723e-07 3.933227207009439e-07 3.3290545707741201e-06 0:1.25744 1:4 2:5.59043 3:25.1288 4:89.7381 5:-479.109 6:-795.265 7:-395.543 8:0 9:520.891 10:0 11:1 12:-0.510638 13:-1.10526 14:0.000134154 
-0 -0 -0 -0.046494944985392729 0 0 0 0 0 0 0 0 0 0:1.10145 1:4 2:5.03252 3:23.4244 4:110.671 5:-514.62 6:-907.895 7:-638.889 8:0 9:485.38 10:0 11:1 12:-0.761905 13:-0.5 14:0.000122421 
-0 -0 -0 -0 0 0 1.9363138525541895e-05 1.1114439471020604e-05 1.1576391190916622e-05 1.5267461101802403e-06 2.9069237149353017e-06 3.8619670710417893e-06 3.0466752499509288e-07 0:0.792176 1:4 2:5.67276 3:46.0372 4:78.3709 5:-178.484 6:-1000 7:-749.389 8:-101.467 9:613.692 10:0 11:1 12:-0.727273 13:-0.518519 14:0.000130173 
-0 -0 -0 -0 -0 0 0 0 0 3.2933024508233562e-05 0 0 0 0:1.97248 1:2 2:3.36456 3:19.7278 4:149.777 5:-55.814 6:0 7:-995.349 8:-27.907 9:944.186 10:506.977 11:0 12:0.514286 13:-0.777778 14:0.000123272 
-0 -0 -0 -0 -0 0 0 0 0 1.4946246255839697e-05 0 0 0 0:1.87646 1:2 2:2.62661 3:13.0523 4:151.27 5:0 6:0 7:-1000 8:-90.6832 9:1000 10:532.919 11:0 12:0.586207 13:-0.62963 14:7.5287e-05 
-1.3800209480933164e-06 -1.1835520558448737e-06 -0.0082535106201723444 -4.3407673785024539e-05 -1.7544214136955845e-05 0 4.9848164022621754e-06 0 0 0 0 0 0 0:0.914804 1:2 2:3.76826 3:11.8582 4:146.635 5:0 6:-1000 7:-829.609 8:-724.86 9:914.804 10:0 11:0 12:-1.76923 13:0.869565 14:7.03655e-05 
-0 -0 -0.0029007485719295769 -0 -0 0 0 0 0 0 0 0 0 0:1.07153 1:2 2:3.90019 3:11.4543 4:140.324 5:-209.424 6:-933.246 7:-1000 8:-654.45 9:790.576 10:0 11:0 12:-1.7037 13:0.53125 14:5.5073e-05 
-0 -0 -0 -0 -0 0 0 0 0 0 1.3582478661867478e-05 2.1788868502866862e-05 0 0:1.93778 1:2 2:3.60985 3:18.902 4:153.114 5:-36.6972 6:-486.239 7:-901.376 8:-516.055 9:963.303 10:29.8165 11:0 12:-0.473684 13:0.636364 14:0.000275229 
-3.3287430384245973e-06 -3.6959910341388958e-07 -0 -0 -0 0 1.3061951437661589e-05 1.0191198884830298e-05 0 0 0.00013953628402462093 0.00012574528117575574 0.00030135179106656007 0:1.54062 1:2 2:3.16978 3:11.8614 4:152.547 5:0 6:-220 7:-847.273 8:0 9:1000 10:429.091 11:0 12:0.230769 13:-1.3 14:0.00013751 
-0 -0 -0 -0 -0 0 0 0 0 0 0 6.961351092871314e-06 0 0:1.67066 1:2 2:4.17746 3:14.9687 4:150.976 5:-80.6452 6:-476.703 7:-786.738 8:-598.566 9:919.355 10:121.864 11:0 12:-0.392157 13:0.78125 14:0.000139506 
-0 -0 -0 -0 -0 0.0013889234773951176 0 0 0 0 0 0 0 0:1.67378 1:2 2:2.86378 3:13.3607 4:150.618 5:-14.5719 6:-597.45 7:-1000 8:-550.091 9:985.428 10:0 11:0 12:-1.26667 13:0.548387 14:0.000155493 
-0 -0 -0 -0 -0 0.011666087125100618 0 0 0 0 0 0 0 0:2 1:2 2:2.99509 3:16.8072 4:152.298 5:-32.4675 6:-474.026 7:-1000 8:-500 9:967.532 10:25.974 11:0 12:-0.925926 13:0.652174 14:0.000142309 
-0 -0 -0 -0 -0 0 0 0 0.00012950413251514424 2.6578240093884483e-05 1.7034876289299515e-07 0 3.1351789868826363e-05 0:2.1879 1:2 2:2.88263 3:18.1851 4:136.433 5:0 6:-441.048 7:-1000 8:-457.06 9:1000 10:16.0116 11:0 12:-5.4 13:0.378378 14:0.00013907 
-0 -0 -0 -0 -0 0 0 0 0.00010721544092492192 0 0 0 0 0:1.88795 1:2 2:2.67952 3:12.9729 4:143.128 5:-23.5162 6:-59.3505 7:-1000 8:0 9:976.484 10:470.325 11:0 12:1 13:-0.56 14:7.8127e-05 
-1.0177685087599913e-06 -1.0469620704957048e-06 -0.015336895350565176 -8.5086531169734084e-05 -2.7857907979449068e-05 0.0056864382670950694 4.0964585428294988e-06 1.4910029238481389e-06 5.3725498187817359e-06 0 1.2061506533946062e-06 0 1.276801918697902e-06 0:1.25997 1:2 2:3.20665 3:8.77703 4:156.117 5:-781.946 6:-793.669 7:-1000 8:0 9:218.054 10:0 11:0 12:0.846154 13:-0.361111 14:4.67548e-05 
-0 -0 -0 -0 -0 0.00016770423572981985 0 2.2607515490709681e-05 5.6202750291641236e-05 0 0 0 0 0:1.50127 1:2 2:2.90775 3:12.1157 4:142.902 5:-64.4068 6:-583.051 7:-1000 8:-301.695 9:935.593 10:83.0508 11:2 12:0.206897 13:-0.0740741 14:0.000146634 
-0 -0 -0 -0 -0 -0 0 0 0.00023307343053292031 0.0048483344544497202 0 0 0 0:6.58537 1:2 2:1.1778 3:9.06419 4:146.853 5:-5.55556 6:-151.852 7:-1000 8:-94.4444 9:994.444 10:0 11:1 12:10 13:-0.681818 14:0.000293586 
-0 -0 -0 -0 -0 -0 0 0 0 0 0 3.4180824216729584e-06 0 0:3.12558 1:2 2:1.15465 3:4.56245 4:162.924 5:0 6:-319.94 7:-1000 8:-11.9048 9:1000 10:0 11:1 12:-3.5 13:-0.533333 14:0.000138427 
-0 -0 -0 -0 -0 -0 0 0 0 0 1.0800446838140065e-05 7.153311680482463e-06 1.4641781111932515e-05 0:2.45791 1:2 2:1.34952 3:4.55686 4:159.866 5:-76.7123 6:-406.849 7:-1000 8:0 9:923.288 10:0 11:1 12:0.625 13:-0.551724 14:0.000110696 
-0 -0 -0 -0 -0 -0 0 0.00012143392406831349 0 0 0 0 0 0:1.7571 1:2 2:1.37129 3:3.86125 4:163.38 5:-21.544 6:-569.12 7:-1000 8:-109.515 9:978.456 10:0 11:1 12:4.375 13:-0.954545 14:0.000118934 
-0 -0 -0 -0 -0 -0.00096920385026464566 0 0 0 0.00039112801445248242 1.4648412843779997e-05 2.4563936127094474e-05 4.2565728132721939e-05 0:2.69312 1:2 2:1.30033 3:4.60687 4:161.771 5:0 6:-74.6562 7:-1000 8:-182.711 9:1000 10:296.66 11:0 12:-8.75 13:-15 14:0.000166318 
-0 -0 -0 -0 -0 -0 5.8231142131455236e-06 0 0 0 0 0 0 0:2.22831 1:2 2:1.98511 3:5.62222 4:161.283 5:-290.984 6:-448.77 7:-1000 8:-77.8689 9:709.016 10:0 11:2 12:0.52 13:9 14:0.000215211 
-0 -0 -0 -0 -0 -0 0 1.064608453260745e-05 0 0 0 0 0 0:1.80287 1:2 2:1.70637 3:4.43876 4:154.976 5:-186.879 6:-554.672 7:-1000 8:-125.249 9:813.121 10:0 11:2 12:0.551724 13:1.3125 14:0.000142514 
-0 -1.7201489603341901e-07 -0 -0 -0 -0 0 0 0 0 0 0 0 0:1.54496 1:2 2:2.10063 3:5.19537 4:155.067 5:-234.568 6:-647.266 7:-1000 8:-227.513 9:765.432 10:0 11:2 12:1 13:-3 14:0.000120141 
-2.0882692135951448e-06 -5.3992745136501853e-07 -0 -0 -0 -0 3.8618984715044745e-06 0 0 0 0 0 0 0:1.62637 1:2 2:2.02009 3:5.3614 4:156.484 5:-207.77 6:-614.865 7:-996.622 8:-184.122 9:792.23 10:0 11:2 12:1.19355 13:15 14:0.000120656 
-0 -0 -0 -0 -0 -0 0 0 0 0 0 1.6157415900947545e-06 8.1225325020821792e-06 0:2.6895 1:2 2:1.26176 3:4.67435 4:169.596 5:-20.3735 6:-371.817 7:-1000 8:-8.48896 9:979.626 10:0 11:1 12:3.875 13:-0.52 14:0.000131792 
-0 -0 -0 -0 -0 -0 0 0 0 0.00077729986764135455 0 0 0 0:4.30345 1:2 2:1.17251 3:6.13875 4:167.423 5:0 6:-232.372 7:-1000 8:-38.4615 9:1000 10:0 11:1 12:-4.5 13:-1.17647 14:0.000209991 
-0 -1.3182466860841738e-06 -3.72678766307471e-05 -1.7607748270917304e-05 -1.0908498433085656e-05 -0.010057301547175644 0 0 0 0 0 0 0 0:1.53867 1:2 2:2.52444 3:5.6128 4:157.261 5:-332.136 6:-649.91 7:-1000 8:-294.434 9:667.864 10:0 11:2 12:0.518519 13:-1.64286 14:0.000138865 
-0 -0 -0 -0 -0 -0.0078826477078802592 0 0 0 0 0 0 0 0:1.80952 1:2 2:2.11212 3:5.36966 4:157.41 5:-191.729 6:-552.632 7:-1000 8:-443.609 9:808.271 10:0 11:2 12:1.21053 13:-0.565217 14:0.000147051 
-0 -0 -0 -0 -0 -0 0 0 0.00039854287298594936 0 0 0 0 0:2.29213 1:2 2:1.78095 3:5.71222 4:150.963 5:-96.4052 6:-436.275 7:-964.052 8:-254.902 9:903.595 10:0 11:2 12:1.64286 13:4.66667 14:0.000140755 
-1.8231139258681903e-06 -0 -0 -0 -0 -0 2.3289995993905084e-05 5.7196431503832708e-06 3.8215217742424547e-05 0 3.6830020948213771e-06 3.8637569792525633e-06 0 0:2.28261 1:2 2:1.45509 3:5.16256 4:155.18 5:0 6:-438.095 7:-969.524 8:-80 9:1000 10:0 11:1 12:-34 13:1.3125 14:0.000173913 
-0 -0 -0 -0 -0 -0 -0 0 0.0021948365481842544 0 1 0 0 0:4.04324 1:3 2:4.97868 3:19.4805 4:140.946 5:0 6:-247.326 7:-364.973 8:0 9:1000 10:0 11:1 12:-15.5 13:-0.947368 14:0.000180662 
-0 -0 -0 -0 -0 -0 -0 0 0.007815382103451193 0 0 0 0 0:3.38073 1:3 2:4.00371 3:17.6699 4:139.765 5:-4.07056 6:-295.794 7:-512.89 8:-36.635 9:995.929 10:0 11:1 12:11.6667 13:-1.3125 14:0.000174275 
-0 -0 -0 -0 -0 -0 -0 0.38913670649346377 0 0 0 0 0 0:2.2129 1:3 2:2.73668 3:11.5664 4:132.544 5:0 6:-451.895 7:-702.624 8:0 9:1000 10:0 11:1 12:-23.5 13:-2.13333 14:0.000150475 
-0 -0 -0 -0 -0 -0 -0 0 0 0 1 0 0 0:2.09211 1:3 2:3.28584 3:11.8386 4:145.581 5:-4.71698 6:-408.805 7:-602.201 8:0 9:995.283 10:69.1824 11:1 12:12.6667 13:-1.73333 14:0.000149992 
-0 -0 -0 -0 -0 -0 -0 0 0 0 0.28428367180062508 0 0 0:2.37011 1:3 2:2.95075 3:11.9142 4:145.817 5:0 6:-405.405 7:-642.643 8:0 9:1000 10:16.5165 11:1 12:-41 13:-1.35294 14:0.000149616 
-0 -0 -0 -0 -0 -0 -0 0.2304113997020576 0 0 0 0 0 0:2.32584 1:3 2:3.81453 3:14.3129 4:139.36 5:-1.61031 6:-429.952 7:-489.533 8:0 9:998.39 10:0 11:1 12:41 13:-2.07143 14:0.00016284 
-0 -0 -1.4576902645689355e-05 -0 -0 -1.1761022485564456e-05 -1.1815838532325923e-05 0 0 0 0 0 0 0:1.22727 1:3 2:3.18115 3:13.5965 4:127.586 5:-168.724 6:-814.815 7:-825.103 8:0 9:831.276 10:0 11:2 12:1.3125 13:-1.4 14:0.000171468 
-0 -0 -0 -0 -0 -0 -0 0.022491649216262153 0 0 0 0 0 0:2.63907 1:3 2:4.57154 3:19.2974 4:117.617 5:-114.178 6:-378.921 7:-568.381 8:0 9:885.822 10:0 11:2 12:0 13:-0.645161 14:0.000166186 
-0 -0 -0 -0 -0 -0 -0 0 0 0 0 0.0038069744273723513 0.00087454073682076015 0:3.61728 1:3 2:5.97523 3:21.8036 4:122.875 5:-110.353 6:-221.843 7:-456.2 8:0 9:889.647 10:54.6075 11:2 12:0.346154 13:-0.952381 14:0.00019195 
-0 -0 -0 -0 -0 -0 -0 1 0 0 0 0 0 0:2.69836 1:3 2:4.39216 3:18.3637 4:118.171 5:-74.1191 6:-370.595 7:-538.275 8:0 9:925.881 10:0 11:1 12:0.703704 13:-0.411765 14:0.000159353 
-0 -0 -0 -0 -0 -0 -0 0.037164711429446537 0 0 0 0 0 0:2.2139 1:3 2:4.6214 3:15.7715 4:120.621 5:-90.5797 6:-451.691 7:-450.483 8:0 9:909.42 10:0 11:2 12:0.56 13:-0.675676 14:0.000129169 
-0 -0 -0 -0 -0 -0 -0 0 0 0 0.80648701237179121 0 0 0:2.14124 1:3 2:4.59561 3:14.027 4:129.983 5:-42.2164 6:-352.243 7:-473.615 8:0 9:957.784 10:114.776 11:1 12:1.11111 13:-0.448276 14:0.000122982 
-0 -0 -0 -0 -0 -0 -0 0 0 0 1 0 0 0:2.31304 1:3 2:4.22155 3:15.3023 4:135.965 5:-21.3033 6:-340.852 7:-526.316 8:0 9:978.697 10:91.4787 11:1 12:2 13:-0.769231 14:0.000134394 
-0 -0 -0 -0 -0 -0 -0 0 0.040673015558010985 0 0 0 0 0:2.53271 1:3 2:4.9839 3:18.7196 4:128.684 5:-57.8106 6:-394.834 7:-434.194 8:0 9:942.189 10:0 11:1 12:1 13:-0.777778 14:0.000157104 
-2.9653317892477897e-05 -0 -0 -0 -0 -4.5277144875738322e-06 -0 0 0 0 1 0.0035089442786199548 0 0:1.55939 1:3 2:9.0579 3:12.6312 4:146.202 5:-41.769 6:-179.361 7:-299.754 8:0 9:958.231 10:461.916 11:0 12:0.8 13:-3.71429 14:0.000169448 
-0 -1.0135509762249338e-06 -0 -0 -0 -0 -0 0 0 0 0 0 0 0:1.80216 1:3 2:4.10339 3:12.0271 4:137.994 5:-117.764 6:-554.89 7:-415.17 8:0 9:882.236 10:0 11:2 12:0.205882 13:-16.5 14:0.000179497 
-0 -0 -0 -0 -0 -0 -0 0 0 0 0 0.0070998205143791527 0.0005167674267781211 0:2.97664 1:3 2:3.28364 3:15.1642 4:122.663 5:0 6:-320.251 7:-618.524 8:-20.4082 9:1000 10:15.6986 11:1 12:-7.4 13:-2.15385 14:0.000220074 
-0 -0 -0 -0 -0 -0 -0 0.013151208211178312 0 0 0 0 0 0:1.42895 1:3 2:3.51724 3:13.6232 4:139.829 5:-79.1897 6:-692.449 7:-618.785 8:0 9:920.81 10:7.36648 11:2 12:3.88889 13:-1.52941 14:0.000169623 
-0 -0 -0 -0 -0 -0 -0 0 0 0 0.40284334872194927 0 0 0:1.35338 1:3 2:3.29835 3:10.4201 4:152.547 5:0 6:-572.222 7:-616.667 8:0 9:1000 10:166.667 11:1 12:-0.117647 13:-1.26923 14:0.000125313 
-0 -0 -0 -0 -0 -0 -0 0 0 0 1 0 0 0:2.2439 1:3 2:3.8009 3:12.9202 4:142.158 5:-48.913 6:-324.275 7:-590.58 8:0 9:951.087 10:121.377 11:0 12:0 13:-0.16129 14:0.000184105 
-0 -0 -0 -0 -0 -0 -0 0 0 0 1 0 0 0:1.9465 1:3 2:4.0986 3:12.5024 4:141.438 5:0 6:-359.408 7:-503.171 8:0 9:1000 10:154.334 11:1 12:-0.145833 13:-1 14:0.000191406 
-0 -0 -0 -0 -0 -0 -0 0 0 0 0.41092678051932613 0 0 0:3.40331 1:3 2:2.79156 3:12.8661 4:141.626 5:-11.3636 6:-293.831 7:-642.857 8:0 9:988.636 10:0 11:2 12:5 13:-2.5 14:0.00025113 
-0 -0 -0 -0 -0 -0 -0 0 0 0 1 0.020885338943556715 0.0028120698570696856 0:2.82083 1:3 2:4.3898 3:15.7183 4:126.829 5:-10.3397 6:-264.402 7:-478.582 8:0 9:989.66 10:90.1034 11:1 12:6.83333 13:-2.18182 14:0.000190793 
-0 -0 -0 -0 -0 -0 -0 0 0.0026003488998228882 0 0 0 0 0:3.19704 1:3 2:3.74196 3:16.0974 4:123.199 5:-16.9492 6:-303.544 7:-559.322 8:-47.7658 9:983.051 10:9.24499 11:2 12:7.2 13:-2.23077 14:0.00024289 
-0 -0 -0 -0 -0 -5.8544894096149777e-06 -2.1159170146229166e-05 0 0 2.1012193802498326e-05 0 0 0 0:2.96296 1:3 2:2.97252 3:13.889 4:126.832 5:-39.0625 6:-334.375 7:-706.25 8:-42.1875 9:960.938 10:3.125 11:2 12:1.25 13:-1.47368 14:0.000238715 
-0 -0 -0 -0 -0 -0 -0 0 0 0 0.10483397752053929 0 0.0001490804381328739 0:2.49627 1:3 2:3.74091 3:13.8252 4:132.003 5:0 6:-325.859 7:-538.117 8:0 9:1000 10:74.7384 11:5 12:-41 13:-1.10526 14:0.000184057 
-0 -0 -0 -0 -0 -0 -0 0 3.282868678181133e-05 0 0 0 0 0:2.51145 1:3 2:3.4311 3:12.6919 4:124.327 5:-53.1915 6:-398.176 7:-638.298 8:-103.343 9:946.809 10:0 11:2 12:2.23529 13:-2 14:0.000179819 
-0 -0 -0 -0 -0 -0 -0 0.23453747316985035 0 0 0 0 0 0:2.24585 1:3 2:3.21804 3:12.4317 4:135.477 5:-31.0651 6:-445.266 7:-610.947 8:0 9:968.935 10:0 11:4 12:4.66667 13:-6.5 14:0.00017201 
-0 -0 -0 -0 -0 -0 -0 0.017940797634040696 0 0 0 0 0 0:2.61993 1:3 2:4.04381 3:13.9301 4:125.967 5:-163.38 6:-363.38 7:-602.817 8:0 9:836.62 10:18.3099 11:4 12:-0.40625 13:-28 14:0.0001871 
-0 -0 -0 -0 -0 -0 -0 0.078241882726966611 0 0 0 0 0 0:2.24042 1:3 2:3.284 3:12.0624 4:130.258 5:-43.5459 6:-444.79 7:-592.535 8:0 9:956.454 10:1.55521 11:2 12:1.17647 13:-27 14:0.000178822 
-0 -0 -0 -0 -0 -0 -0 0 0 0 1 0 0 0:2.40856 1:3 2:3.4631 3:11.8967 4:139.869 5:-12.9241 6:-366.721 7:-539.58 8:0 9:987.076 10:48.4653 11:1 12:6.16667 13:-3 14:0.000163437 
-0 -0 -0 -0 -0 -0 -0 0 0 0 0.17063219648720251 0 0 0:2.41729 1:3 2:3.27656 3:12.6161 4:131.951 5:-6.22084 6:-309.487 7:-639.191 8:-17.1073 9:993.779 10:104.199 11:1 12:10.25 13:-2.77778 14:0.00019294 
-0 -0 -0 -0 -0 -0 -0 0.082947164627928824 0 0 0 0 0 0:1.5452 1:3 2:3.85895 3:13.1922 4:137.239 5:-76.7824 6:-647.166 7:-469.835 8:0 9:923.218 10:0 11:2 12:2.63636 13:-6.75 14:0.000175585 
-6.1216653425347025e-05 -6.9147752487243405e-06 -0 -0 -0 -0 -0 0 0 0 0 0 0 0:1.3211 1:3 2:3.34402 3:10.2456 4:140.412 5:-147.569 6:-756.944 7:-494.792 8:0 9:852.431 10:0 11:2 12:1.88889 13:-7.25 14:0.000135385 
-0 -0 -0 -0 -0 -0 -0 0.06943561875882015 0 0 0 0 0 0:1.33131 1:3 2:3.24817 3:10.9421 4:134.142 5:-2.28311 6:-751.142 7:-465.753 8:0 9:997.717 10:0 11:1 12:45 13:-6.14286 14:0.000173488 
-0 -0 -3.4301717914332124e-05 -4.8475276536988742e-05 -3.2544596086213096e-05 -0 -0 0 0 0 0 0 0 0:1.32911 1:3 2:3.87534 3:12.9582 4:127.022 5:-254.422 6:-752.381 7:-627.211 8:-38.0952 9:745.578 10:0 11:2 12:1.78947 13:-2.54545 14:0.000105793 
-0 -0 -0 -0 -0 -0 -0 0 0 0 0 0.0055108450135681669 0 0:2.22848 1:3 2:4.42865 3:14.9971 4:126.908 5:0 6:-375.929 7:-472.511 8:-29.7177 9:1000 10:72.8083 11:1 12:-14 13:-2.5 14:0.000162365 
-7.4040631060621398e-06 -0 -0 -0 -0 -0 -0 -0 0 0 0 0 0 0:1.88757 1:4 2:4.62766 3:15.4782 4:106.845 5:-14.1066 6:-529.781 7:-333.856 8:0 9:985.893 10:0 11:1 12:4.44444 13:-2.38462 14:0.000143755 
-0 -0 -0 -0 -0 -0 -0 -0 1 0 0 0 0 0:2.24825 1:4 2:5.80531 3:27.7629 4:93.686 5:-9.33126 6:-444.79 7:-419.907 8:0 9:990.669 10:0 11:1 12:5.5 13:-1.78571 14:0.00022295 
-0 -0 -0 -0 -0 -6.222932864125155e-06 -0 -0 0 0 0.00076304692623985096 1 1 0:2.91441 1:4 2:5.60763 3:26.973 4:105.099 5:-21.6383 6:-129.83 7:-550.232 8:-7.72798 9:978.362 10:213.292 11:1 12:5.8 13:-2.23077 14:0.000257599 
-0 -0 -0 -0 -0 -0 -0 -0 0 0 0 0 0.14605591038335275 0:2.40141 1:4 2:5.05529 3:25.9878 4:107.653 5:-5.8651 6:-388.563 7:-527.859 8:0 9:994.135 10:27.8592 11:1 12:7.75 13:-1.46667 14:0.000201355 
-0 -0 -0 -0 -0 -0 -0 -0 0 0 0 0.30474372562001822 0.13043275087619252 0:2.03987 1:4 2:4.93861 3:21.0519 4:111.09 5:0 6:-415.309 7:-521.173 8:-26.0586 9:1000 10:74.9186 11:1 12:-33 13:-0.592593 14:0.000211023 
-0 -0 -0 -0 -0 -2.3576204664748988e-05 -0.00011724472942446203 -0 0 3.0205795620044309e-06 0 0 0 0:1.49342 1:4 2:4.10885 3:29.0486 4:114.343 5:-30.837 6:-665.198 7:-927.313 8:-74.8899 9:969.163 10:4.40529 11:1 12:4.33333 13:-2.36364 14:0.000282576 
-0 -0 -0 -0 -0 -0 -0 -0 0.43673781789264188 0 0 0 0 0:2.14689 1:4 2:4.92115 3:24.2786 4:101.296 5:-44.7368 6:-465.789 7:-544.737 8:0 9:955.263 10:0 11:1 12:1.6 13:-3 14:0.000163544 
-0 -0 -0 -0 -0 -0 -0 -0 1 0 0 0 0 0:2.71779 1:4 2:5.89635 3:29.6929 4:110.337 5:-23.702 6:-362.302 7:-451.467 8:0 9:976.298 10:5.64334 11:1 12:1.85714 13:-1.4375 14:0.000166184 
-0 -0 -0 -0 -0 -0 -0 -0 1 0 0 0 0 0:2.27078 1:4 2:5.00588 3:25.5886 4:100.275 5:-55.49 6:-440.378 7:-602.125 8:-51.9481 9:944.51 10:0 11:1 12:1.41667 13:-5.6 14:0.000161428 
-0 -0 -0 -0 -0 -0 -0 -0 0.05523874759079337 0 0 0 0 0:2.26331 1:4 2:5.21702 3:26.3397 4:97.2075 5:-87.8713 6:-404.703 7:-601.485 8:0 9:912.129 10:37.1287 11:3 12:0.882353 13:-2.08333 14:0.00018027 
-0 -0 -0 -0 -0 -0 -0 -0 0.27783689764468794 0 0 0 0 0:2.49704 1:4 2:5.83168 3:25.2988 4:101.843 5:-151.659 6:-400.474 7:-522.512 8:0 9:848.341 10:0 11:4 12:0.515152 13:-1.73333 14:0.000196304 
-0 -0 -0 -0 -0 -2.1874067400335233e-06 -2.0554922326842186e-05 -0 1 4.8568365373899687e-05 0 0 0.47080382443799529 0:5.06701 1:8 2:4.31097 3:57.1388 4:70.5592 5:-62.0549 6:-197.355 7:-819.43 8:-15.2594 9:937.945 10:0 11:2 12:0.137931 13:-2.30769 14:0.000132406 
-0 -0 -0 -0 -0 -0 -0 -0 0 0 0 1 0.20065814559401093 0:1.8861 1:4 2:4.82711 3:21.5172 4:106.687 5:-35.0242 6:-448.068 7:-572.464 8:0 9:964.976 10:82.1256 11:1 12:2 13:-0.321429 14:0.000140306 
-0 -0 -0 -0 -0 -0 -0 -0 0.47208548286967394 0 0 0 0 0:1.94937 1:4 2:5.19698 3:24.671 4:89.9402 5:-63.6364 6:-512.987 7:-516.883 8:0 9:936.364 10:0 11:4 12:0.56 13:-2.88889 14:0.000164393 
-0 -0 -0 -0 -0 -0 -0 -0 0.84411371231066468 0 0 0 0 0:2.76245 1:4 2:6.54363 3:25.5107 4:111.416 5:-29.1262 6:-361.997 7:-330.097 8:-8.32178 9:970.874 10:0 11:1 12:1.875 13:-3.71429 14:0.000196619 
-0 -0 -0 -0 -0 -0 -0 -0.17059468986968318 0 0 0 0 0 0:2.33588 1:4 2:4.11967 3:17.4374 4:107.569 5:-37.5817 6:-428.105 7:-544.118 8:0 9:962.418 10:0 11:1 12:1.76923 13:-2 14:0.000218281 
-0 -0 -0 -0 -0 -0 -0 -0 0 0 0 0.10331287259682126 0 0:3.07407 1:4 2:4.98953 3:22.8654 4:110.19 5:-16.5663 6:-256.024 7:-528.614 8:-64.759 9:983.434 10:69.2771 11:1 12:4 13:-1.3125 14:0.000264949 
-0 -0 -0 -0 -0 -0 -0 -1 0 0 0 0 0 0:2.08209 1:4 2:3.45084 3:13.3226 4:123.139 5:-53.7634 6:-480.287 7:-607.527 8:0 9:946.237 10:0 11:1 12:1 13:-2.7 14:0.000207297 
-6.113833538077168e-05 -1.0627187207587546e-05 -0 -0 -0 -0 -0 -0 0 0 0 0 0 0:1.43506 1:4 2:5.14869 3:21.0925 4:106.541 5:-111.614 6:-696.833 7:-374.057 8:0 9:888.386 10:0 11:2 12:1.63636 13:-8.66667 14:0.000156706 
-0 -0 -0 -0 -0 -2.3031730304804617e-06 -0 -0 0 0 0 0 0 0:1.90859 1:4 2:4.35222 3:25.795 4:115.628 5:-62.4093 6:-507.983 7:-799.71 8:-95.791 9:937.591 10:15.9652 11:2 12:3.55556 13:-1.31579 14:0.00018092 
-0 -0 -0 -0 -0 -0 -0 -0 0 0 0 1 0 0:2.22819 1:4 2:4.31365 3:25.4631 4:98.7911 5:-24.0964 6:-371.988 7:-713.855 8:0 9:975.904 10:76.8072 11:1 12:2.45455 13:-2.72727 14:0.000202151 
-0 -0 -0 -0 -0 -0 -0 -0 0 0 0 0 0.24154127312274654 0:3.20968 1:4 2:6.36123 3:26.5414 4:96.1885 5:-18.4255 6:-266.332 7:-391.96 8:-11.7253 9:981.575 10:45.2261 11:1 12:3.44444 13:-4.42857 14:0.000297185 
-0 -0 -0 -0 -0 -0 -0 -0.0048639221003461399 0 0 0.0045999192788562862 1 0 0:2.49213 1:4 2:4.78157 3:19.4148 4:118.362 5:-22.1169 6:-289.1 7:-529.226 8:0 9:977.883 10:112.164 11:2 12:2.63636 13:-2.16667 14:0.000248784 
-0 -0 -0 -0 -0 -0 -0 -0 0 0 0 0.23856439286169173 0 0:2.94444 1:4 2:6.24799 3:25.1201 4:106.672 5:-79.5148 6:-295.148 7:-442.049 8:0 9:920.485 10:44.4744 11:1 12:0.782609 13:-2.81818 14:0.000208574 
-0 -0 -0 -0 -0 -0 -0 -0 0 0 0 1 0 0:2.78632 1:4 2:5.55033 3:23.3071 4:106.793 5:-23.0061 6:-271.472 7:-467.791 8:0 9:976.994 10:87.4233 11:3 12:3.5 13:-7.5 14:0.000262178 
-0 -0 -0 -0 -0 -0 -0 -0 0.10813856511738133 0 0 0 0.23765320832690359 0:2.81034 1:4 2:5.95707 3:27.0703 4:123.532 5:0 6:-322.086 7:-409.509 8:0 9:1000 10:33.7423 11:3 12:-21 13:-1.375 14:0.000264438 
-0 -0 -0 -0 -0 -0 -0 -1 0 0 0.00046850914042655145 0 0 0:2.65401 1:4 2:4.09148 3:16.9603 4:133.682 5:-41.3355 6:-376.789 7:-531.002 8:0 9:958.665 10:0 11:2 12:4.28571 13:-3.85714 14:0.000228076 
-0 -0 -0 -0 -0 -0 -0 -0 0.26491543736298845 0 0 0 0 0:2.73568 1:4 2:4.50421 3:24.8614 4:108.776 5:-8.05153 6:-365.539 7:-574.879 8:-9.66184 9:991.948 10:0 11:2 12:10 13:-3.66667 14:0.000269567 
-0 -0 -0 -7.5958125227475427e-06 -4.3288172496553258e-06 -0 -0 -0 0 0 0 0 0 0:1.22535 1:4 2:4.80088 3:23.6494 4:103.677 5:-60.7553 6:-816.092 7:-622.332 8:-93.5961 9:939.245 10:0 11:2 12:2.125 13:-2.92308 14:0.000175106 
-0 -0 -7.7779472549645497e-06 -9.9324923948443253e-06 -1.1902145633342225e-06 -0 -0 -0 0 0 0 0 0 0:1.72454 1:4 2:4.72628 3:18.9721 4:112.55 5:-238.926 6:-579.866 7:-665.772 8:-22.8188 9:761.074 10:0 11:2 12:0.965517 13:-3.36364 14:0.000142928 
-0 -0 -1.4340484027415166e-05 -0 -8.6754983245551306e-06 -0 -0 -0 0 0 0 0 0 0:1.47379 1:4 2:4.20983 3:19.8998 4:114.064 5:-174.964 6:-678.521 7:-724.04 8:0 9:825.036 10:0 11:2 12:2.46667 13:-1.86667 14:0.00014016 
-0 -0 -0 -0 -0 -0 -0 -0 0 0 0 1 0 0:2.42211 1:4 2:5.01025 3:20.1152 4:114.2 5:0 6:-352.697 7:-454.357 8:0 9:1000 10:60.166 11:1 12:-2.13333 13:-2.88889 14:0.000271065 
-0 -0 -0 -0 -0 -0 -0 -0 0 0 0 1 0 0:3.28814 1:4 2:4.60865 3:25.2705 4:99.8798 5:0 6:-243.986 7:-549.828 8:0 9:1000 10:60.1375 11:1 12:-6.5 13:-2.08333 14:0.000310637 
-0 -0 -0 -0 -0 -0 -0 -0 0.083045300946266012 0 0 0 0 0:1.75974 1:4 2:5.46029 3:26.4705 4:96.2085 5:-113.161 6:-568.266 7:-654.367 8:-108.241 9:886.839 10:0 11:3 12:0.833333 13:-1.90476 14:0.000143768 
-0 -0 -0 -0 -0 -0 -0 -0 0 0 0 0 0.0093175409437225108 0:2.24262 1:4 2:4.98778 3:24.851 4:84.4425 5:0 6:-419.591 7:-519.006 8:0 9:1000 10:26.3158 11:1 12:-4.33333 13:-2.38462 14:0.000191736 
-0 -0 -0 -0 -0 -0 -0 -0 -0 0 0 0 1 0:3.06167 1:5 2:7.43 3:27.1012 4:106.043 5:0 6:-326.619 7:-231.655 8:0 9:1000 10:0 11:1 12:-16.5 13:-1.92857 14:0.000221849 
-0 -0 -0 -0 -0 -0 -0 -0 -0 0 0 0 0.17938452348966205 0:2.55859 1:5 2:6.82912 3:32.4826 4:67.0839 5:0 6:-381.679 7:-355.725 8:0 9:1000 10:9.16031 11:1 12:-8.66667 13:-1.11111 14:0.000250477 
-7.4967983720335836e-06 -7.1048835175291986e-07 -0 -0 -0 -0 -0 -0 -0 0 0 0 0 0:1.80124 1:5 2:6.70923 3:28.5192 4:71.9628 5:-62.069 6:-555.172 7:-270.69 8:0 9:937.931 10:0 11:1 12:1.75 13:-2.08333 14:0.000219533 
-6.0517377292154404e-05 -8.7259603267779772e-06 -0 -0 -0 -0 -0 -0 -0 0 0 0 0 0:1.50262 1:5 2:5.65248 3:25.4744 4:69.4814 5:-40.0697 6:-665.505 7:-336.237 8:0 9:959.93 10:0 11:1 12:2.07143 13:-2.8 14:0.000200668 
-0 -0 -0 -0 -0 -0 -0 -0 -1 0 0 0 0 0:2.11397 1:5 2:5.39316 3:23.0073 4:89.8088 5:-24.3478 6:-473.043 7:-412.174 8:0 9:975.652 10:0 11:1 12:2.77778 13:-8.66667 14:0.000236573 
-0 -0 -0 -0 -0 -0 -0 -0 -0 0 0 0 1 0:2.35316 1:5 2:9.01084 3:37.1198 4:64.0589 5:-6.31912 6:-350.711 7:-273.302 8:0 9:993.681 10:74.2496 11:1 12:8.5 13:-1.5 14:0.000258402 
-0 -0 -2.957050303893397e-05 -2.7185280725901422e-05 -1.5450406294263925e-05 -0 -0 -0 -0.2189089260462164 0 0 0 0 0:1.19861 1:5 2:4.11408 3:26.6585 4:105.178 5:-148.362 6:-834.297 7:-934.489 8:0 9:851.638 10:0 11:3 12:1.5 13:-13.5 14:0.000226942 
-0 -0 -0 -0 -0 -0 -3.024024389156719e-07 -0.00063779780673848109 -0 0 0 0 0 0:1.76453 1:5 2:4.05081 3:28.7782 4:107.378 5:-95.3206 6:-566.724 7:-920.277 8:-6.93241 9:904.679 10:0 11:2 12:2.88889 13:-0.85 14:0.0002332 
-0 -0 -0 -0 -0 -0 -0 -0 -0.28933171505234362 0 0 0 0 0:2.29885 1:5 2:6.55943 3:36.3725 4:73.0748 5:-87.5 6:-435 7:-510 8:0 9:912.5 10:0 11:1 12:0.583333 13:9.33333 14:0.000193966 
-0 -0 -0 -0 -0 -0 -0 -0 -0.59564309275123706 2.8061937187603708e-05 0 0 0 0:4.4059 1:5 2:5.62256 3:69.6972 4:95.8549 5:-75.6562 6:-207.926 7:-762.223 8:-37.5708 9:924.344 10:19.0427 11:2 12:0.340909 13:-4.25 14:0.000149382 
-0 -0 -0 -0 -0 -0 -0.00063752141763528188 -0 -0 2.8627129762057601e-05 0 0 0 0:2.96246 1:5 2:3.59397 3:34.644 4:101.388 5:-58.7558 6:-337.558 7:-1000 8:-198.157 9:941.244 10:0 11:2 12:1.35294 13:-0.947368 14:0.000228056 
-0 -0 -0 -0 -0 -0 -0 -0 -0 0 0 0 1 0:2.42895 1:5 2:6.76043 3:37.463 4:79.7824 5:0 6:-319.61 7:-488.624 8:-5.41712 9:1000 10:92.091 11:1 12:-21.5 13:-1.73684 14:0.000168216 
-0 -0 -0 -0 -0 -0 -0 -0 -0 0 0.00087751352516746552 0.028389885379903997 1 0:1.94563 1:5 2:6.24736 3:32.4503 4:112.602 5:-4.86027 6:-391.252 7:-528.554 8:0 9:995.14 10:122.722 11:1 12:9.5 13:-4.625 14:0.000166605 
-0 -0 -0 -0 -0 -0.00029829487355048889 -0 -0 -0 0 0 0 0 0:2.01882 1:5 2:4.32598 3:35.9862 4:71.5558 5:-29.2943 6:-331.558 7:-1000 8:-230.36 9:970.706 10:163.782 11:2 12:2.81818 13:-1.2 14:0.000211188 
-0 -0 -0 -0 -0 -0 -0 -0 -0 0 0 0 1 0:3.28333 1:5 2:6.13423 3:40.5654 4:96.6177 5:-5.07614 6:-269.036 7:-510.998 8:0 9:994.924 10:35.533 11:2 12:19 13:-0.652174 14:0.000404211 
-0 -0 -0 -0 -0 -0 -0 -0 -1 0 0 0 0 0:2.35055 1:5 2:5.5475 3:30.2388 4:75.4761 5:-39.2465 6:-425.432 7:-527.473 8:-1.56986 9:960.754 10:0 11:1 12:1.78947 13:-1.05263 14:0.00026647 
-0 -0 -0 -0 -0 -0 -0 -0 -0.17186952380209999 0 0 0 0 0:2.95855 1:5 2:5.41123 3:33.9703 4:84.8552 5:0 6:-338.004 7:-527.145 8:0 9:1000 10:0 11:1 12:-5.33333 13:-1.21053 14:0.000344818 
-0 -0 -0 -0 -0 -0 -0 -0 -0 0 0 0 1 0:2.33173 1:5 2:5.96175 3:33.2876 4:88.2788 5:0 6:-362.887 7:-519.588 8:0 9:1000 10:65.9794 11:1 12:-9.5 13:-0.833333 14:0.000366772 
-0 -0 -0 -0 -0 -0 -0 -0.00058043005430006461 -0 0 0 0 0 0:2.07386 1:5 2:4.73072 3:33.0026 4:93.7643 5:-83.5616 6:-482.192 7:-775.342 8:0 9:916.438 10:0 11:2 12:3.4 13:33 14:0.0001868 
-1.2712425593010305e-05 -0 -0 -0 -0 -0 -0 -0 -0 0 0 0.018187349562161389 1 0:1.63636 1:5 2:8.04655 3:34.447 4:83.5311 5:0 6:-468.75 7:-324.653 8:0 9:1000 10:142.361 11:0 12:-1.03333 13:-2.5 14:0.000221946 
-0 -0 -0 -0 -0 -0 -0 -0 -0 0 0 0.0088185675141323333 1 0:3.33505 1:5 2:11.5528 3:35.4783 4:92.4413 5:-86.5533 6:-134.467 7:-344.668 8:-20.0927 9:913.447 10:165.379 11:2 12:0.633333 13:-1.8125 14:0.000326646 
-0 -0 -0 -0 -0 -0 -0 -0 -1 0 0 0 0 0:3.1629 1:5 2:5.74552 3:28.5326 4:112.644 5:-47.2103 6:-316.166 7:-463.519 8:0 9:952.79 10:0 11:1 12:2.23077 13:-1.3125 14:0.000284828 
-0 -0 -0 -0 -0 -0 -0 -0 -1 0 0 0 0 0:2.93886 1:5 2:5.48134 3:26.897 4:111.785 5:-47.5483 6:-340.267 7:-500.743 8:-25.26 9:952.452 10:0 11:2 12:0.392857 13:-2.58333 14:0.000285497 
-0 -0 -0 -0 -0 -0 -0 -0 -0 0 8.1171363971805155e-05 0 0 0:2.66376 1:5 2:5.15664 3:25.7715 4:125.208 5:-52.459 6:-375.41 7:-524.59 8:0 9:947.541 10:0 11:2 12:0.8 13:-1.66667 14:0.000307824 
-0 -0 -0 -0 -0 -0 -0 -0 -0 0 0.0019376398021961813 0.022325532622555686 1 0:3.19545 1:5 2:6.25937 3:28.8206 4:124.03 5:-8.53485 6:-237.553 7:-432.432 8:-12.8023 9:991.465 10:75.3912 11:2 12:5.33333 13:-3.71429 14:0.000278029 
-0 -0 -0 -0 -0 -0 -0 -0 -0 0 0 0 0.21626333098799824 0:3.39412 1:5 2:6.48197 3:35.4341 4:105.037 5:-32.9289 6:-294.627 7:-435.009 8:0 9:967.071 10:0 11:1 12:3.09091 13:5.6 14:0.000397594 
-0 -0 -0 -0 -0 -0 -0 -0 -0 0 0 0.050842476563282564 0 0:3.10053 1:5 2:5.38308 3:25.9821 4:110.414 5:0 6:-247.44 7:-500 8:-49.4881 9:1000 10:75.0853 11:3 12:-6 13:-2.45455 14:0.000343103 
-0 -0 -0 -0 -0 -0 -0 -0.0096089472000680798 -0 0 0 0 0 0:2.62698 1:5 2:5.5788 3:23.4144 4:129.261 5:-24.1692 6:-380.665 7:-400.302 8:0 9:975.831 10:0 11:2 12:3.75 13:-1.21053 14:0.000245768 
-0 -0 -0 -0 -0 -0 -0 -0 -0.22193478564339156 0 0 0 0 0:2.65789 1:5 2:5.7783 3:26.6527 4:102.845 5:-34.6535 6:-376.238 7:-442.244 8:-9.90099 9:965.347 10:0 11:1 12:1.625 13:-3.125 14:0.000282265 
-0 -0 -0 -0 -0 -0 -3.2007701187096342e-05 -0.037577867365795485 -0 0 0 0 0 0:2.79724 1:5 2:5.53874 3:24.1371 4:132.681 5:-49.4234 6:-357.496 7:-451.4 8:-11.5321 9:950.577 10:0 11:1 12:1.9375 13:-3 14:0.000311269 
-0 -0 -0 -0 -0 -0 -0 -0.0049113693693489269 -0 0 0 0 0 0:2.47458 1:5 2:5.38304 3:22.0718 4:115.606 5:-46.2329 6:-404.11 7:-426.37 8:0 9:953.767 10:0 11:1 12:2.75 13:-2.27273 14:0.000275714 
-0 -0 -0 -0 -0 -0 -0 -0 -0 0 0 0 1 0:3.22642 1:5 2:7.50477 3:35.9541 4:87.569 5:-19.0058 6:-290.936 7:-369.883 8:-17.5439 9:980.994 10:19.0058 11:1 12:3.2 13:-2.90909 14:0.000310328 
-0 -0 -0 -0 -0 -0 -0 -0 -1 0 0 0 0 0:2.80702 1:5 2:4.64002 3:24.8556 4:106.375 5:-14.0625 6:-356.25 7:-568.75 8:-34.375 9:985.938 10:0 11:3 12:4.42857 13:-1.17647 14:0.000274123 
-0 -0 -2.7849542276176819e-06 -0 -0 -0 -0 -0 -0 0 0 0 0 0:1.9023 1:5 2:6.42781 3:29.2391 4:103.457 5:-212.991 6:-525.68 7:-648.036 8:-98.1873 9:787.009 10:0 11:2 12:1.19355 13:-9.33333 14:0.000190992 
-0 -0 -0 -0 -2.0498462078468757e-06 -0 -0 -0 -0 0 0 0 0 0:1.56545 1:5 2:5.65712 3:34.1685 4:96.3777 5:-205.686 6:-638.796 7:-729.097 8:0 9:794.314 10:0 11:2 12:1.95 13:-13 14:0.00021888 
-0 -0 -0 -0 -0 -0 -0 -0 -0.044423918439914729 0 0 0 0 0:1.90032 1:5 2:5.53673 3:22.7365 4:105.217 5:-6.76819 6:-526.227 7:-343.486 8:0 9:993.232 10:0 11:1 12:7.5 13:-7.6 14:0.000223067 
-0 -5.5804526601992526e-07 -3.0915087466166998e-06 -2.6666082882575391e-06 -2.3443903330700593e-06 -1.273425264175476e-05 -0.00042139331437752081 -0 -3.5702150959089307e-06 -0 0 0 0 0:5.00794 1:2 2:1.09573 3:5.74131 4:158.241 5:-42.7892 6:-196.513 7:-1000 8:0 9:957.211 10:3.16957 11:0 12:-0.0740741 13:-0.26776 14:0.00021382 
-0 -0 -0 -0 -0 -0 -0 -0 -0 -0 0 1.4102320896329232e-05 2.9630330525193951e-05 0:5.80392 1:2 2:1.08502 3:6.83715 4:169.433 5:0 6:-25.3378 7:-1000 8:0 9:1000 10:146.959 11:1 12:0.121951 13:-1.15789 14:0.00024841 
-0 -0 -0 -0 -0 -0 -0.0015445619494666451 -0 -0 -0 0 0 0 0:5.37234 1:2 2:1.06417 3:6.18791 4:166.372 5:0 6:-186.139 7:-1000 8:-55.4455 9:1000 10:0 11:0 12:-0.136364 13:14 14:0.000273857 
-2.8278960744658554e-06 -8.1416525071543295e-07 -0 -0 -0 -0 -1.3198461509037447e-05 -2.1012193802498326e-05 -3.6657225997621575e-05 -4.5372938251774043e-05 1.9104242342427127e-05 9.4268426741903915e-06 1.0063772090343581e-05 0:5.36792 1:2 2:1.09348 3:6.15206 4:164.402 5:0 6:-186.292 7:-968.366 8:-42.1793 9:1000 10:0 11:0 12:-0.210526 13:-1.33333 14:0.000198959 
-0 -0 -0 -0 -0 -0 -0 -0 -0 -0 3.637614837509692e-06 9.5846701864981502e-06 1.1604495881051175e-05 0:3.81098 1:2 2:1.06811 3:4.49759 4:169.254 5:0 6:0 7:-1000 8:-185.6 9:1000 10:262.4 11:0 12:0.195652 13:-1.4375 14:0.000156098 
-0 -0 -0 -0 -0 -0 -0 -0 -1.1361503842373613e-05 -1.1316128697887269e-05 0 0 0 0:8.61194 1:2 2:1.36381 3:12.9662 4:154.079 5:-103.986 6:-116.118 7:-1000 8:-34.662 9:896.014 10:0 11:1 12:0.310345 13:-4.57143 14:0.000491477 
-0 -0 -0 -0 -0 -0 -0.0037017093150152744 -0 -0 -0 0 0 0 0:6.97727 1:2 2:1.11339 3:8.66729 4:159.376 5:0 6:-140.065 7:-1000 8:-94.4625 9:1000 10:3.25733 11:1 12:-0 13:-0.230769 14:0.000259106 
-0 -0 -0 -0 -0 -6.1723258216202982e-05 -0.00033589929617507683 -0 -0 -0 0 0 0 0:3.51323 1:2 2:1.05102 3:4.11183 4:170.122 5:0 6:0 7:-1000 8:-243.976 9:1000 10:284.639 11:0 12:0.153846 13:-9 14:0.000119526 
-0 -0 -4.9219631632233227e-06 -4.6693801325847738e-06 -4.2115701084947825e-06 -0 -0 -1 -0 -0 -0 0 0 0:1.5113 1:3 2:3.60521 3:12.6499 4:148.701 5:0 6:-497.196 7:-629.907 8:0 9:1000 10:164.486 11:2 12:0.137931 13:-0.947368 14:0.000147843 
-0 -0 -0 -0 -0 -0.000154495262102776 -1.6089989844304566e-05 -0 -0 -0 -4.1694537970439615e-06 0 0 0:1.87385 1:3 2:2.95438 3:11.2131 4:146.248 5:0 6:-226.601 7:-796.388 8:0 9:1000 10:307.061 11:0 12:0.0740741 13:-1.125 14:0.000131363 
-0 -0 -0 -0 -0 -0 -0 -0 -0 -0 -0 0.020009093838270157 0.0027140587619096236 0:2.11075 1:3 2:3.70627 3:14.2481 4:133.938 5:0 6:-251.543 7:-654.321 8:0 9:1000 10:222.222 11:1 12:-0.0645161 13:-0.72 14:0.000150802 
-0 -0 -0 -0 -0 -0 -0 -0 -0 -0 -0 0.013077735894105706 0 0:2.63218 1:3 2:5.90656 3:15.9954 4:136.211 5:0 6:-179.039 7:-377.001 8:0 9:1000 10:200.873 11:1 12:-0.108696 13:-0.65625 14:0.000167311 
-0 -0 -0 -0 -0 -0 -0 -1 -0 -0 -0 0 0 0:2.20128 1:3 2:5.91384 3:14.2312 4:134.873 5:0 6:-283.019 7:-323.657 8:0 9:1000 10:171.263 11:1 12:-0.121951 13:-1.76471 14:0.00013911 
-0 -0 -0 -0 -0 -0 -0 -0.93190556249929202 -0 -0 -0 0 0 0:2.00539 1:3 2:3.56058 3:12.3405 4:140.733 5:0 6:-348.118 7:-603.495 8:0 9:1000 10:150.538 11:1 12:-0.425 13:-1.11538 14:0.000119555 
-0 -0 -0 -0 -0 -0 -0 -1 -0.0015378068253821741 -0.00029575022601912427 -0 7.9415902541497523e-05 0.0002442999190842466 0:2.39799 1:3 2:6.27714 3:15.203 4:122.566 5:-87.8661 6:-242.678 7:-407.252 8:0 9:912.134 10:174.338 11:0 12:0.0571429 13:-1.07692 14:0.000144601 
-2.6786900581885368e-06 -0 -0 -0 -0 -0 -0 -0 -0 -0 -0 0 0 0:1.40524 1:3 2:4.38664 3:10.0229 4:146.92 5:0 6:-421.808 7:-439.024 8:0 9:1000 10:289.813 11:1 12:0.0857143 13:-1.90476 14:8.967e-05 
-2.2245518678469784e-05 -4.2063286849555863e-06 -0 -0 -0 -0 -0 -0 -0 -0 -0 0 0 0:1.73059 1:3 2:4.80375 3:10.6128 4:138.972 5:0 6:-381.266 7:-346.966 8:0 9:1000 10:196.57 11:3 12:-0 13:-2.21429 14:9.93964e-05 
-0 -0 -0 -0 -0 -0 -0 -1 -0 -0.0011844642934236661 -0 0 0 0:2.09041 1:3 2:4.50937 3:13.774 4:140.023 5:0 6:-376.147 7:-427.261 8:0 9:1000 10:102.228 11:1 12:-0.0625 13:-2.14286 14:0.000118494 
-0 -0 -0 -0 -0 -0 -0 -0 -0.0020978055753353357 -0 -0 0 0 0:2.28435 1:3 2:3.10546 3:11.6185 4:137.568 5:0 6:-317.483 7:-653.147 8:0 9:1000 10:120.28 11:1 12:-0.0769231 13:-1.66667 14:0.000134051 
-0 -0 -0 -0 -0 -0 -0 -0.32265789365279296 -0 -0 -0 0 0 0:2.3913 1:3 2:2.80758 3:9.89547 4:144.89 5:0 6:-332.727 7:-643.636 8:0 9:1000 10:85.4545 11:1 12:-0.0689655 13:-1.05 14:0.000173913 
-0 -0 -0 -0 -0 -0 -0 -0 -0 -0 -0 0 0.0002349157695701459 0:4.27742 1:3 2:3.46282 3:17.5961 4:142.717 5:0 6:-120.664 7:-573.152 8:0 9:1000 10:113.122 11:0 12:0.0638298 13:-1.52941 14:0.000223812 
-0 -0 -0 -0 -0 -0 -0 -0.4309566180559295 -0 -0 -0 0 0 0:2.364 1:3 2:4.11536 3:13.1818 4:134.108 5:-45.6853 6:-285.956 7:-543.147 8:0 9:954.315 10:137.056 11:1 12:-0.259259 13:-1.3 14:0.000142132 
-0 -0 -0 -0 -0 -0 -0 -1 -0 -0 -0 0 0 0:3.39474 1:3 2:4.21579 3:16.1925 4:142.585 5:-46.5116 6:-221.705 7:-514.729 8:0 9:953.488 10:72.8682 11:1 12:-0.133333 13:-1.19048 14:0.000220318 
-0 -0 -0 -0 -0 -0 -0 -0.21851802884488591 -0 -0 -0 0 0 0:2.57627 1:3 2:3.80253 3:12.0442 4:138.554 5:-55.9211 6:-261.513 7:-567.434 8:-13.1579 9:944.079 10:126.645 11:1 12:-0.441176 13:0.32 14:0.000195138 
-0 -0 -0 -0 -0 -0 -0 -1 -0 -0 -0 0 0 0:2.71041 1:3 2:3.1558 3:12.3615 4:147.933 5:0 6:-320.534 7:-595.993 8:0 9:1000 10:48.414 11:0 12:-0.25641 13:-1 14:0.000181298 
-0 -0 -0 -0 -0 -0 -0 -0 -0 -0 -1.3672383833784522e-05 0 0 0:2.66234 1:3 2:2.72638 3:11.0619 4:148.589 5:0 6:-232.52 7:-710.569 8:0 9:1000 10:143.089 11:1 12:-0.06 13:-0.9 14:0.000175976 
-0 -0 -0 -0 -0 -0 -0 -0.32185409365725431 -0 -0 -0 0 0 0:2.37054 1:3 2:3.45457 3:10.9116 4:145.102 5:0 6:-348.399 7:-514.124 8:0 9:1000 10:73.4463 11:0 12:-0.230769 13:-3.125 14:0.000184961 
-0 -0 -0 -0 -0 -0 -0 -0.12757602308499319 -0 -0 -0 0 0 0:2.15 1:3 2:4.17542 3:13.0421 4:153.313 5:0 6:-357.294 7:-469.345 8:0 9:1000 10:107.822 11:0 12:-0.188679 13:-29 14:0.000182587 
-0 -0 -0 -0 -0 -0 -0 -0.8265387676262157 -0.0018426774843999429 -0.0014161101718926626 -0 0 0 0:3.48131 1:3 2:4.05413 3:17.649 4:142.268 5:0 6:-222.819 7:-508.725 8:0 9:1000 10:64.4295 11:1 12:-0.111111 13:-1.10526 14:0.000194443 
-0 -0 -0 -0 -0 -0 -1.3041871932436879e-05 -0 -0 -0 -4.9000195491083289e-06 0 0 0:2.27046 1:3 2:2.9263 3:11.0216 4:147.279 5:-50.1567 6:-305.643 7:-738.245 8:0 9:949.843 10:134.796 11:1 12:-0.28125 13:-2 14:0.000156182 
-0 -0 -0 -0 -0 -0 -0 -1 -0.0003531854604052455 -0 -0 0 0 0:1.71991 1:3 2:4.31427 3:12.8348 4:134.841 5:-13.459 6:-433.378 7:-475.101 8:0 9:986.541 10:148.048 11:1 12:2.7 13:-0.766667 14:9.96959e-05 
-1.9198459164776444e-05 -3.0557309614013964e-06 -0 -0 -0 -0 -0 -0 -0 -0 -0 -0 0 0:1.82317 1:4 2:11.2463 3:25.7685 4:116.051 5:-16.7224 6:-317.726 7:-165.552 8:-18.3946 9:983.278 10:230.769 11:0 12:-0.0731707 13:-2.6 14:0.000188637 
-0 -0 -0 -0 -0 -0 -4.0614828798597217e-05 -0 -0 -0 -0 -0 0 0:2.20229 1:4 2:4.01552 3:25.0297 4:114.785 5:0 6:-209.705 7:-818.024 8:-20.7972 9:1000 10:244.367 11:0 12:0.0434783 13:-1.21053 14:0.000218292 
-0 -0 -0 -0 -0 -0 -0 -0 -0 -0 -0 -0.009115485680264707 0 0:3.0199 1:4 2:3.95086 3:24.7099 4:135.914 5:0 6:-177.924 7:-701.812 8:0 9:1000 10:153.213 11:1 12:-0 13:-1.57895 14:0.000237691 
-0 -0 -0 -0 -0 -0 -0 -0 -0 -0 -3.3113833757017772e-05 -0 0 0:2.3195 1:4 2:3.81865 3:24.2199 4:110.712 5:0 6:-164.58 7:-830.054 8:0 9:1000 10:266.547 11:1 12:0.0681818 13:-3.25 14:0.000222686 
-0 -0 -0 -0 -0 -0.00015449550077149395 -0 -0 -0 -0 -0 -0 0 0:1.82759 1:4 2:4.43421 3:22.7884 4:112.027 5:0 6:-250.943 7:-775.472 8:-69.8113 9:1000 10:296.226 11:1 12:-0.0350877 13:-2.05556 14:0.000201692 
-0 -0 -0 -0 -0 -0 -0 -0 -0.55306765626295407 -0 -0 -0 0 0:2.28077 1:4 2:4.22351 3:23.2024 4:113.658 5:0 6:-355.818 7:-666.105 8:0 9:1000 10:82.6307 11:0 12:-0.21875 13:-1.05556 14:0.000227007 
-0 -0 -0 -0 -0 -0 -0 -0 -1 -0 -0 -0 0 0:2.18089 1:4 2:5.17459 3:23.0663 4:119.481 5:0 6:-348.983 7:-522.692 8:0 9:1000 10:109.546 11:4 12:-0.03125 13:-1.52941 14:0.000197621 
-0 -0 -0 -0 -0 -0 -0 -0 -0.86412956625028514 -0.025933626011058523 -0 -0 0 0:3.20889 1:4 2:4.76778 3:27.5049 4:94.9569 5:0 6:-216.066 7:-574.792 8:0 9:1000 10:95.5679 11:1 12:-0.15 13:-3.125 14:0.00024623 
-0 -0 -0 -0 -0 -0 -0 -0 -0.50073089572873986 -0 -0 -0 0 0:2.42125 1:4 2:4.97884 3:22.7245 4:120.72 5:0 6:-328.29 7:-520.424 8:0 9:1000 10:84.7201 11:1 12:-0.264706 13:-1.55 14:0.00020504 
-0 -0 -0 -0 -0 -0 -0 -0.015960585377602213 -0 -0 -0 -0 0 0:2.09091 1:4 2:4.98256 3:20.8667 4:119.946 5:-48.495 6:-347.826 7:-578.595 8:0 9:951.505 10:130.435 11:1 12:0.0344828 13:-1.76923 14:0.000216339 
-0 -0 -0 -0 -0 -0 -0 -0 -0 -0 -0 -0 0.65221373504401536 0:1.67787 1:4 2:4.99676 3:25.5559 4:104.888 5:0 6:-265.442 7:-734.558 8:0 9:1000 10:330.551 11:1 12:-0.0181818 13:-0.818182 14:0.000205758 
-0 -0 -0 -0 -0 -0 -0 -0 -0 -0 -0 -0 0.61143576908925679 0:2.4963 1:4 2:4.74607 3:30.9343 4:113.056 5:0 6:-268.546 7:-691.395 8:0 9:1000 10:132.047 11:1 12:0.194444 13:-0.4 14:0.000252775 
-7.6520261059913893e-06 -0 -0 -0 -0 -0 -0 -0 -0 -0 -0 -0 0 0:1.38889 1:4 2:5.84245 3:16.9293 4:121.255 5:0 6:-411.2 7:-433.6 8:0 9:1000 10:308.8 11:1 12:0.0227273 13:-1.22222 14:0.000138667 
-0 -1.5102578646363327e-06 -0 -0 -0 -0 -0 -0 -0.46064498770458762 -0.066641530120344614 -0 -0 0 0:1.91566 1:4 2:6.63167 3:24.8605 4:108.81 5:0 6:-408.805 7:-402.516 8:-44.0252 9:1000 10:113.208 11:1 12:-0.195652 13:-2.23077 14:0.000269422 
-0 -0 -0 -0 -0 -0 -0 -0 -1 -0 -0 -0 0 0:2.80488 1:4 2:4.76103 3:24.3713 4:106.281 5:0 6:-271.304 7:-556.522 8:0 9:1000 10:85.2174 11:1 12:-0.212121 13:-0.913043 14:0.00026299 
-0 -0 -0 -0 -0 -0 -0 -0 -0 -0 -0 -0 0.66316223341731717 0:2.82629 1:4 2:7.61651 3:33.3904 4:117.726 5:0 6:-217.608 7:-395.349 8:0 9:1000 10:136.213 11:1 12:-0.115385 13:-1 14:0.000296352 
-0 -0 -0 -0 -0 -0 -0 -0.0029598536175463861 -0 -0 -0 -0 0 0:3.05 1:4 2:6.68373 3:22.4258 4:126.178 5:0 6:-145.902 7:-403.279 8:-101.639 9:1000 10:181.967 11:1 12:0.0740741 13:-1 14:0.000229508 
-0 -0 -0 -0 -0 -0 -0 -0 -0.042973874353023266 -0 -0 -0 0 0:4.07692 1:4 2:4.51237 3:27.0189 4:108.065 5:0 6:-139.332 7:-563.135 8:-47.8955 9:1000 10:105.951 11:2 12:-0.2 13:-0.555556 14:0.000283405 
-0 -0 -0 -0 -0 -0 -0 -0 -0 -0.02874944011662562 -0 -0 0 0:4.80315 1:4 2:5.12167 3:29.587 4:125.399 5:0 6:-134.426 7:-465.574 8:0 9:1000 10:73.7705 11:2 12:0.0882353 13:-1.64286 14:0.000348522 
-0 -0 -0 -0 -0 -0 -0 -0 -0.046360694490362613 -0 -0 -0 0 0:2.276 1:4 2:5.41268 3:22.7581 4:104.158 5:0 6:-309.315 7:-495.606 8:0 9:1000 10:130.053 11:1 12:0.0689655 13:-16 14:0.000217926 
-0 -0 -0 -6.2597839563361092e-07 -0 -0 -0 -0 -0.98426565101504859 -0.0072392153940076913 -0 -0 0 0:2.4625 1:4 2:6.26491 3:22.0278 4:89.2134 5:-148.9 6:-274.112 7:-539.763 8:0 9:851.1 10:131.98 11:1 12:-0.0344828 13:-2.7 14:0.000232657 
-0 -0 -0 -0 -0 -0 -0 -0 -1 -0 -0 -0 0 0:2.61765 1:4 2:4.57328 3:20.8826 4:109.26 5:0 6:-292.135 7:-544.141 8:0 9:1000 10:89.8876 11:2 12:-0.681818 13:-1.25 14:0.000222561 
-0 -0 -0 -0 -0 -0 -0 -0.02189148418234772 -0 -0 -0 -0 0 0:3.1407 1:4 2:5.54304 3:23.3939 4:129.039 5:0 6:-244.8 7:-427.2 8:0 9:1000 10:73.6 11:0 12:0.09375 13:-2.41667 14:0.000233166 
-0 -0 -0 -0 -0 -0 -0 -0 -0.19444766527356108 -0 -0 -0 0 0:2.56223 1:4 2:6.50573 3:22.2499 4:110.775 5:0 6:-251.256 7:-376.884 8:0 9:1000 10:139.028 11:1 12:-0.0740741 13:-30 14:0.000237238 
-0 -0 -0 -0 -0 -0 -0 -0 -1 -0 -0 -0 0 0:2.49576 1:4 2:4.34441 3:20.8694 4:111.202 5:0 6:-342.954 7:-570.458 8:0 9:1000 10:57.725 11:0 12:-0.230769 13:-2.77778 14:0.000237403 
-0 -0 -0 -0 -0 -0 -0 -0 -0 -0 -0 -0.010155729055669952 0 0:2.05691 1:4 2:5.90543 3:21.778 4:130.096 5:0 6:-328.063 7:-442.688 8:0 9:1000 10:158.103 11:1 12:-0.181818 13:-0.85 14:0.000232977 
-0 -0 -0 -0 -0 -0 -0 -0 -0 -0 -0 -0.0038191329603257064 0 0:2.71028 1:4 2:5.04814 3:18.273 4:121.744 5:0 6:-203.448 7:-472.414 8:0 9:1000 10:165.517 11:1 12:-0.241379 13:-2 14:0.000201418 
-0 -0 -5.269943849106319e-06 -4.0337588937859535e-06 -4.255289791742734e-06 -0 -0 -0 -0 -0 -0 -0 0 0:1.48187 1:4 2:3.92053 3:18.3677 4:121.76 5:0 6:-501.748 7:-744.755 8:0 9:1000 10:173.077 11:1 12:-0.294118 13:-1.76923 14:0.000172108 
-0 -0 -0 -0 -0 -0 -0 -0 -0 -0 -0 -0.010075897938656962 0 0:1.96786 1:4 2:5.83964 3:20.8061 4:133.307 5:0 6:-165.154 7:-531.76 8:0 9:1000 10:343.013 11:0 12:0.0967742 13:-2.23077 14:0.00018797 
-0 -0 -0 -0 -0 -0 -0 -0 -0 -0 -0 -0 0.13782996701895089 0:3.3545 1:4 2:6.05441 3:32.263 4:108.364 5:0 6:-124.606 7:-496.845 8:0 9:1000 10:173.502 11:1 12:0.027027 13:-0.692308 14:0.000275399 
-0 -0 -0 -0 -0 -0 -0 -0 -0 -0 -0 -0 0.016063257392785142 0:2.10029 1:4 2:5.28851 3:22.6492 4:100.777 5:0 6:-339.888 7:-519.663 8:0 9:1000 10:136.236 11:1 12:-5.57143 13:-3.18182 14:0.000174008 
-0 -0 -0 -0 -0 -0 -0 -0.003115324827636645 -1 -1 -0 -0 -0 0:3.49268 1:5 2:6.52787 3:32.703 4:110.213 5:-39.1061 6:-243.017 7:-439.944 8:0 9:960.894 10:43.2961 11:2 12:-0.785714 13:-1.05556 14:0.000299768 
-0 -0 -0 -0 -0 -0.0001711302649811995 -0 -0 -0 -0 -0 -0 -0 0:1.62363 1:5 2:4.54461 3:28.3184 4:84.7328 5:0 6:-270.728 7:-878.173 8:0 9:1000 10:345.178 11:1 12:0.0851064 13:-2.69231 14:0.000199885 
-0 -0 -0 -0 -0 -0 -0 -0 -0 -0 -4.0216831984484523e-05 -0 -0 0:3.04049 1:5 2:3.77255 3:30.6905 4:116.317 5:0 6:-99.8668 7:-836.218 8:0 9:1000 10:229.028 11:0 12:0.0638298 13:-1.76923 14:0.000215637 
-0 -0 -0 -0 -0 -7.5868825464823692e-05 -5.9980065970484458e-05 -0.00049564403360860066 -0 -0 -1.1081766512104188e-05 -0.0012749904199458721 -0.34623725202354211 0:1.9908 1:5 2:3.76878 3:26.2143 4:120.083 5:0 6:-215.716 7:-938.367 8:0 9:1000 10:286.595 11:2 12:0.0625 13:-5.4 14:0.000198512 
-0 -0 -0 -0 -0 -0 -0 -0 -0 -0 -0 -0 -0.22786421189830938 0:1.71925 1:5 2:6.07668 3:25.6613 4:88.0651 5:0 6:-379.471 7:-510.109 8:0 9:1000 10:202.177 11:1 12:-0 13:-2.18182 14:0.000187124 
-0 -0 -0 -0 -0 -0 -0 -0 -0 -0 -0 -0.00053831652099794135 -0 0:2.06226 1:5 2:8.60942 3:35.2436 4:112.477 5:-35.8491 6:-237.736 7:-462.264 8:-16.9811 9:964.151 10:247.17 11:1 12:-0.947368 13:-1.5625 14:0.000293664 
-0 -0 -0 -0 -0 -0 -0 -5.1758880985968274e-05 -0 -0 -0 -0 -0 0:2.02679 1:5 2:5.54006 3:29.8008 4:117.508 5:0 6:-202.643 7:-688.693 8:-133.627 9:1000 10:290.749 11:1 12:0.135135 13:-1.71429 14:0.000179183 
-0 -0 -1.9785573651496854e-06 -3.0737676726450373e-07 -0 -0 -0 -0 -0 -0 -0 -0 -0 0:2.13851 1:5 2:5.24908 3:34.2484 4:92.5209 5:-55.2923 6:-249.605 7:-775.671 8:0 9:944.708 10:218.009 11:1 12:-0.119048 13:-2.9 14:0.000224158 
-0 -0 -6.2503841789631827e-07 -7.1112280289134312e-07 -0 -0 -0 -0.00068973071657022758 -0 -1 -0 -0.00039058325218438 -0.18303539610644801 0:2.25397 1:5 2:6.79689 3:32.8244 4:108.531 5:0 6:-397.887 7:-396.127 8:0 9:1000 10:45.7746 11:1 12:-0.48 13:-1.8125 14:0.000293427 
-0 -0 -0 -0 -0 -0 -0 -0 -0 -0.052182741219209766 -0 -0 -0 0:2.01619 1:5 2:7.86911 3:36.3827 4:95.698 5:0 6:-393.574 7:-369.478 8:0 9:1000 10:102.41 11:1 12:-0.0833333 13:-1.8125 14:0.000300798 
-0 -0 -0 -0 -0 -0 -0 -0 -0 -1 -0 -0 -0 0:2.45755 1:5 2:8.07225 3:36.8141 4:85.7131 5:0 6:-381.958 7:-289.827 8:0 9:1000 10:24.952 11:1 12:-0.230769 13:-2.18182 14:0.000325933 
-0 -0 -0 -0 -0 -0 -0 -0 -0 -0.33063093841614916 -0 -0 -0 0:1.94776 1:5 2:12.6463 3:29.4592 4:86.8619 5:0 6:-342.912 7:-220.307 8:-128.352 9:1000 10:170.498 11:1 12:-0.0689655 13:-3.25 14:0.000250186 
-0 -0 -0 -0 -0 -0 -0 -0 -0 -1 -0 -0 -0 0:2.58051 1:5 2:6.20855 3:27.8561 4:88.1048 5:0 6:-293.924 7:-440.066 8:0 9:1000 10:93.5961 11:1 12:-0.105263 13:-1.21053 14:0.000243522 
-0 -0 -0 -0 -0 -0 -0 -0 -0 -1 -0 -0 -0 0:2.50593 1:5 2:5.80398 3:31.2299 4:99.1625 5:0 6:-301.262 7:-528.391 8:0 9:1000 10:97.7918 11:1 12:-0.0344828 13:-0.73913 14:0.000249373 
-0 -0 -0 -0 -0 -0 -0 -0 -0.62297571728331425 -0 -0 -0 -0 0:2.59839 1:5 2:5.94199 3:32.8005 4:79.4892 5:-38.6399 6:-261.206 7:-576.507 8:0 9:961.36 10:123.648 11:1 12:-0.4 13:-1 14:0.000273117 
-0 -0 -0 -0 -0 -0 -0 -0 -0 -1 -0 -0 -0 0:2.44715 1:5 2:7.69686 3:34.2404 4:105.129 5:-39.8671 6:-310.631 7:-413.621 8:0 9:960.133 10:98.0066 11:1 12:-0.5 13:-0.88 14:0.000283607 
-0 -0 -0 -0 -0 -0 -0 -0 -0 -0 -0 -0.00098938425743581816 -0.78306500569026638 0:2.72157 1:5 2:7.28121 3:31.4945 4:111.642 5:0 6:-211.816 7:-416.427 8:0 9:1000 10:155.62 11:1 12:-0.097561 13:-0.652174 14:0.000231678 
-0 -0 -0 -0 -0 -0 -0 -0 -0.02075758056187511 -0 -0 -0 -0 0:6.06731 1:5 2:8.70351 3:48.9397 4:104.007 5:0 6:-126.783 7:-307.448 8:-17.4326 9:1000 10:38.0349 11:1 12:-0.52 13:-0.583333 14:0.000441911 
-0 -0 -0 -0 -0 -0 -0 -0 -0 -0.66423918058491493 -0 -0 -0 0:3.72603 1:5 2:9.00781 3:45.0787 4:71.9996 5:0 6:-238.971 7:-303.309 8:0 9:1000 10:29.4118 11:2 12:-0.194444 13:-1.76923 14:0.000415492 
-0 -0 -0 -0 -0 -0 -0 -0 -0 -0.050811626867153237 -0 -0 -0 0:2.96859 1:5 2:9.46754 3:32.9355 4:92.792 5:0 6:-241.623 7:-312.169 8:-79.3651 9:1000 10:95.2381 11:1 12:-0.4 13:-0.966667 14:0.000350887 
-0 -0 -0 -0 -0 -0 -5.3499757762521785e-06 -0 -0 -0 -0 -0 -0 0:2.72103 1:5 2:4.56044 3:33.6796 4:106.264 5:0 6:-143.533 7:-766.562 8:-56.7823 9:1000 10:223.975 11:0 12:-0.0789474 13:-2.21429 14:0.00025047 
-0 -0 -0 -0 -0 -0 -0 -0 -0.013870510050825902 -0.16305572551067091 -0 -0 -0 0:2.33712 1:5 2:5.58534 3:29.7652 4:99.0497 5:0 6:-155.592 7:-630.47 8:-51.8639 9:1000 10:272.285 11:1 12:-0.0357143 13:-32.5 14:0.000214872 
-0 -0 -0 -0 -0 -0 -0 -0 -0.20678547310715886 -0 -0 -0 -0 0:2.75088 1:5 2:5.044 3:29.533 4:100.076 5:0 6:-118.622 7:-649.235 8:-96.9388 9:1000 10:244.898 11:0 12:0.136364 13:-4 14:0.000161117 
-0 -0 -0 -0 -0 -8.6981292408061143e-05 -0 -0 -0 -0 -0 -0 -0 0:1.75082 1:5 2:5.68833 3:27.991 4:91.0814 5:0 6:-153.558 7:-698.502 8:-74.9064 9:1000 10:417.603 11:0 12:-0.212121 13:-2.25 14:0.000214895 
-0 -0 -0 -0 -0 -0 -0 -0 -0 -0.023297750572865743 -0 -0 -0 0:3.02941 1:5 2:8.29721 3:36.3997 4:91.3675 5:-33.9806 6:-237.864 7:-401.294 8:-38.835 9:966.019 10:92.233 11:1 12:-0.761905 13:-1.22727 14:0.000309347 
-0 -0 -0 -0 -0 -0 -0 -0 -0 -1 -0 -0 -0 0:2.82805 1:5 2:6.74283 3:36.4036 4:91.4474 5:0 6:-299.2 7:-440 8:0 9:1000 10:54.4 11:1 12:-0.172414 13:-1.10526 14:0.000282353 
-4.1907572797149871e-05 -5.575993759924409e-06 -0 -0 -0 -0 -0 -0 -0 -0 -0 -0 -0 0:1.6875 1:5 2:10.1591 3:34.2043 4:62.814 5:-42.885 6:-403.509 7:-226.121 8:0 9:957.115 10:189.084 11:1 12:-0.0833333 13:-1.9375 14:0.000256489 
-0 -0 -1.28771504654204e-06 -2.9639677948102245e-06 -3.6337220957692129e-06 -0 -0 -0 -0 -0 -0 -0 -0 0:2.20763 1:5 2:10.5818 3:35.277 4:84.6018 5:-101.727 6:-305.182 7:-324.376 8:0 9:898.273 10:147.793 11:1 12:-0.148936 13:-1.76923 14:0.000284655 
-0 -0 -0 -0 -0 -0 -0 -0 -0 -0.23570528616956077 -0 -0 -0 0:2.77273 1:5 2:8.00683 3:36.9551 4:76.5887 5:0 6:-324.226 7:-320.583 8:0 9:1000 10:36.4299 11:0 12:-0.195122 13:-1.41176 14:0.000294383 
-0 -0 -0 -0 -0 -0 -0 -0 -0 -0.041897237613877376 -0 -0 -0 0:2.06522 1:5 2:7.18685 3:33.1314 4:71.2133 5:0 6:-380.702 7:-407.018 8:0 9:1000 10:103.509 11:1 12:-0.916667 13:-1.85714 14:0.000279685 
-0 -0 -0 -0 -0 -0 -0 -0 -0 -0.503510182141644 -0 -0 -0 0:2.69474 1:5 2:11.7043 3:36.3005 4:78.3319 5:-114.583 6:-265.625 7:-281.25 8:0 9:885.417 10:105.469 11:1 12:-0.307692 13:-0.76 14:0.000196455 
-0 -0 -0 -0 -0 -0 -0 -0 -0 -1 -0 -0 -0 0:1.98142 1:5 2:8.19375 3:36.935 4:82.1198 5:0 6:-417.188 7:-321.875 8:0 9:1000 10:87.5 11:1 12:-0.459459 13:-2.375 14:0.000217686 
-0 -0 -0 -0 -0 -0 -0 -0 -0 -0 -0 -0 -0.19638699750028216 0:2.04954 1:5 2:4.99867 3:32.3635 4:115.221 5:0 6:-297.583 7:-737.16 8:0 9:1000 10:190.332 11:1 12:-0.0204082 13:15 14:0.000201098 
-0 -0 -0 -0 -0 -0 -0 -0 -0.57207337268173342 -0.33031718538161708 -0 -0 -0 0:2.59353 1:5 2:4.19296 3:29.9822 4:103.747 5:0 6:-233.01 7:-776.699 8:0 9:1000 10:152.566 11:1 12:-0.146341 13:-3.625 14:0.000189585 
-0 -0 -0 -0 -0 -0 -0 -0 -0 -0 -0 -0 -0.34411609874361032 0:2.35987 1:5 2:4.78108 3:30.8981 4:117.954 5:0 6:-133.603 7:-744.939 8:0 9:1000 10:290.148 11:0 12:0.0652174 13:-3.88889 14:0.00018051 
