svm_type c_svc
kernel_type linear
nr_class 6
total_sv 44
rho -13.850792193832845 -1.4650892885985938 -1.4826934919786805 -1.7834900536070328 -0.51801997203416805 -0.72900012581588092 -0.94562165004091259 -1.0246125104149255 -0.054412127559303025 13.376137071377181 -2.5356602887811066 0.39565269468771436 5.6084540043601967 0.78236744294407823 0.038913966056946747
label 0 1 3 2 4 5
nr_sv 6 7 12 8 9 2
SV
0.0001644113308522091 0 0 0 0 0:1.54723 1:1 2:2.06042 3:5.94663 4:111.622 5:-738.816 6:-599.563 7:0 8:0 9:261.184 10:46.7541 11:6 
0.0002452741558820427 0 2.4856022054894794e-06 0 0 0:1.18302 1:1 2:2.22453 3:5.8497 4:115.357 5:-636.771 6:-770.553 7:0 8:0 9:363.229 10:74.7384 11:6 
0 0 0 0 1.683702239764456e-06 0:1.08647 1:1 2:2.77812 3:7.87703 4:116.538 5:-485.181 6:-839.039 7:0 8:0 9:514.819 10:81.3746 11:6 
0.00029913442414963485 0 3.7943499675059938e-07 0 0 0:1.26205 1:1 2:2.85268 3:9.07765 4:119.679 5:-556.285 6:-757.907 7:0 8:0 9:443.715 10:34.4545 11:6 
1.044030442300018e-05 1.9376038068121029e-06 4.7798221082329524e-06 5.3721327600383308e-06 0 0:0.702703 1:1 2:2.32287 3:8.21244 4:109.988 5:-560.811 6:-868.919 7:0 8:0 9:141.892 10:131.081 11:4 
0 6.2389183136063438e-06 0 5.4366893609638984e-06 3.079439952401889e-06 0:0.768098 1:1 2:2.67525 3:9.40944 4:111.492 5:-483.436 6:-880.982 7:0 8:0 9:284.663 10:119.018 11:7 
-0.00071926021530688657 0 0 0 0 0:1.32124 1:1 2:1.65564 3:3.47928 4:141.54 5:-637.044 6:-744.883 7:0 8:0 9:362.956 10:11.982 11:3 
-0 0 0 1.100725011847184e-06 0 0:1.12072 1:1 2:1.5795 3:3.29626 4:136.612 5:-659.762 6:-884.516 7:-2.58933 8:-20.1968 9:340.238 10:7.768 11:2 
-0 2.6070978045720414e-07 6.3343137912057199e-08 0 0 0:1.61048 1:1 2:1.03934 3:2.36542 4:170.149 5:-986.98 6:-620.931 7:0 8:0 9:13.0195 10:0 11:1 
-0 0 1.9399009590197821e-08 0 0 0:0.997158 1:1 2:1.28983 3:2.66872 4:146.78 5:-791.311 6:-986.602 7:0 8:0 9:205.847 10:13.3983 11:1 
-0 0 0 6.6920157809434301e-06 0 0:0.954027 1:1 2:1.35077 3:2.77439 4:146.231 5:-672.012 6:-999.525 7:0 8:0 9:282.015 10:0.475172 11:2 
-0 0 0 3.8191359258243046e-07 5.9106675240260737e-06 0:0.80687 1:1 2:1.51096 3:3.24673 4:148.759 5:-392.004 6:-996.898 7:0 8:0 9:414.867 10:3.10202 11:1 
-0 8.3963300241860178e-06 8.1768781714154783e-06 4.2893598200578179e-06 0 0:0.795833 1:1 2:1.39764 3:3.01784 4:146.028 5:-509.722 6:-986.111 7:0 8:-1.38889 9:286.111 10:13.8889 11:1 
-0 -0 0.11641424108200432 0 0 0:1.44061 1:3 2:4.57474 3:17.4384 4:87.9863 5:-882.392 6:-685.283 7:-552.562 8:0 9:117.608 10:8.86991 11:4 
-0 -0 0 0.0010041697457494026 0 0:1.08238 1:3 2:4.86285 3:18.8583 4:67.5612 5:-762.156 6:-881.078 7:-554.968 8:-48.0973 9:237.844 10:42.8118 11:2 
-0 -0 0.086605689027385302 0 0 0:1.46167 1:3 2:4.9934 3:18.265 4:84.0622 5:-842.67 6:-665.872 7:-602.304 8:0 9:157.33 10:18.2757 11:2 
-0 -0 0 0.002616896557410217 0 0:1.05597 1:3 2:5.19235 3:17.7955 4:73.9944 5:-789.399 6:-927.915 7:-734.276 8:-139.223 9:210.601 10:19.0813 11:4 
-0 -0 0.11088264549461108 0 0 0:1.15165 1:3 2:4.46252 3:16.528 4:84.465 5:-812.977 6:-848.601 7:-789.44 8:0 9:187.023 10:19.7201 11:4 
-0 -0 0 0.0087169771384849899 0 0:1.17966 1:3 2:4.69459 3:18.5632 4:74.4633 5:-873.563 6:-833.812 7:-736.59 8:0 9:126.437 10:13.8889 11:4 
-0 -0 0.52486249117971773 0 0 0:1.16535 1:3 2:5.73834 3:13.6681 4:99.8122 5:-786.921 6:-856.54 7:-712.997 8:-264.321 9:213.079 10:1.57285 11:2 
-9.1360672936734176e-07 -0 0 0 0 0:1.31029 1:3 2:4.83299 3:17.8827 4:106.025 5:-628.403 6:-761.328 7:-503.969 8:-7.13353 9:371.597 10:1.85874 11:2 
-0 -0 0 0.0096858546687476604 0 0:0.936549 1:3 2:3.98212 3:16.6875 4:83.7334 5:-685.858 6:-987.12 7:-580.135 8:0 9:250.692 10:12.8804 11:2 
-0 -0 0.54021670165065228 0 0 0:1.20183 1:3 2:4.87512 3:16.507 4:101.327 5:-735.975 6:-830.969 7:-779.628 8:-72.0234 9:264.025 10:1.0982 11:2 
-7.2629153910511057e-06 -8.6570398046432227e-06 0 0 7.2946154537152173e-06 0:0.72791 1:3 2:3.99143 3:19.575 4:90.5883 5:-500.701 6:-978.261 7:-472.651 8:-32.9593 9:227.209 10:21.7391 11:2 
-0 -0 0.10801537263970575 0 0 0:0.853807 1:3 2:4.77143 3:15.4087 4:78.4088 5:-615.228 6:-957.36 7:-649.746 8:-197.97 9:238.579 10:42.6396 11:2 
-0 -0 -1 0.0023976491994192406 0 0:1.26895 1:3 2:5.14581 3:18.0761 4:86.9471 5:-808.548 6:-782.304 7:-642.089 8:-67.983 9:191.452 10:5.74856 11:2 
-0 -0 -0.1235514153039832 0 0 0:0.914378 1:2 2:4.06066 3:10.6607 4:120.207 5:-611.739 6:-973.613 7:-798.6 8:-227.787 9:302.639 10:26.3866 11:2 
-0 -0 -0.0084293344260337553 0 0 0:0.96063 1:2 2:3.51394 3:10.8834 4:124.795 5:-511.811 6:-1000 7:-920.654 8:-175.651 9:448.819 10:0 11:3 
-0 -0 -0.19277979362080477 0 0 0:1.19018 1:2 2:5.3333 3:9.83899 4:119.621 5:-768.041 6:-830.756 7:-981.959 8:-335.911 9:231.959 10:9.45017 11:3 
-2.9734173443790062e-06 -0 -0 0.00051165182200099484 0 0:1.32332 1:2 2:2.96485 3:7.35985 4:108.352 5:-804.229 6:-737.666 7:-506.656 8:0 9:195.771 10:18.011 11:2 
-4.6714419660940247e-06 -8.2596203189177347e-06 -0 0 0 0:0.738562 1:2 2:2.30526 3:7.17558 4:125.486 5:-501.089 6:-1000 7:-488.744 8:-1.45243 9:237.473 10:0 11:3 
-0 -0 -0.16223659772323379 0 0 0:0.969873 1:2 2:3.8189 3:9.37731 4:102.176 5:-655.852 6:-1000 7:-812.283 8:-225.956 9:314.021 10:0 11:3 
-0 -0 -0 0 9.8567156862275041e-06 0:0.837775 1:2 2:3.54308 3:10.9008 4:116.307 5:-477.404 6:-943.221 7:-833.14 8:-168.019 9:360.371 10:56.7787 11:2 
-0 -0 -0.01685333050199031 -0 0 0:0.96673 1:4 2:5.2567 3:27.0183 4:76.3412 5:-746.08 6:-986.233 7:-695.985 8:-15.2964 9:220.65 10:13.7667 11:4 
-0 -0 -0.00036140880578974972 -0 0 0:1.6382 1:4 2:6.28467 3:26.8046 4:54.6413 5:-876.943 6:-587.759 7:-614.637 8:0 9:123.057 10:22.6684 11:5 
-0 -0 -0 -0.00099613106843640035 0 0:1.17947 1:4 2:6.82754 3:30.6784 4:51.4305 5:-744.138 6:-827.514 7:-762.897 8:-80.7712 9:255.862 10:20.3231 11:6 
-0 -0 -0.0045554953634477629 -0.0012621943446810763 0 0:1.46568 1:4 2:5.43087 3:23.1966 4:74.0643 5:-890.43 6:-674.083 7:-533.42 8:-34.4442 9:109.57 10:8.19214 11:6 
-0 -0 -0 -0.00020393075126125729 2.6717902009144352e-06 0:1.21842 1:4 2:5.9944 3:29.0101 4:78.2506 5:-582.747 6:-820.375 7:-548.362 8:-7.09111 9:417.253 10:0.357106 11:2 
-0 -0 -0 -0.00044704485704149936 0 0:1.07532 1:4 2:4.85801 3:21.264 4:79.4189 5:-821.356 6:-927.836 7:-552.685 8:-52.7856 9:178.644 10:2.1195 11:2 
-0 -1.2464014205430863e-05 -0 -0 0 0:0.895939 1:4 2:5.16024 3:30.9823 4:72.7815 5:-604.936 6:-998.711 7:-392.762 8:0 9:291.003 10:1.28925 11:4 
-1.0808822121002225e-05 -0 -0 -0 3.3403494766011163e-06 0:0.763729 1:4 2:5.12192 3:32.3742 4:54.8147 5:-549.17 6:-960.409 7:-407.407 8:0 9:214.559 10:39.5913 11:2 
-0 -0 -0.0002536634391644458 -0 0 0:0.802721 1:4 2:4.69409 3:25.3693 4:54.032 5:-577.098 6:-959.184 7:-512.472 8:0 9:225.624 10:40.8163 11:2 
-0 -0 -2.9831983411676102e-07 -5.1715518493284615e-06 -6.7323746062584375e-07 0:1.22434 1:2 2:3.81746 3:10.0982 4:119.441 5:-294.928 6:-806.215 7:-1000 8:-543.829 9:705.072 10:10.5541 11:1 
-4.7631421921663436e-06 -5.9106675240260737e-06 -6.9962956195984564e-06 -4.6851638368990426e-06 -5.3389022168897084e-06 0:0.460154 1:2 2:2.51318 3:7.53719 4:126.779 5:-84.8329 6:-976.864 7:-388.175 8:-300.771 9:375.321 10:23.1362 11:3 
